1035 50
capac 0.31106588 -0.39360723 0.4973335 -0.42963517 0.53096324 -0.5734787 -0.2179496 0.8092072 0.2754548 0.5336474 -0.7029378 -0.18902466 0.36061162 0.33015558 0.19709617 -0.07221075 -0.49361175 0.2252242 0.23514156 0.25475875 0.30344692 0.16526762 -0.17616972 -1.4519483 -0.19109249 -0.6092628 0.41996852 1.3025286 0.20487839 -0.29732782 -0.5154593 1.3110893 -0.2368937 -0.360796 0.54758555 0.83259517 -0.56042457 -0.36109874 -0.72202075 -0.25264114 -0.6694444 -0.070170544 0.0885075 -0.11697005 -0.3140144 0.29363096 0.80767727 0.8330897 -0.2323121 -1.3459178
health -0.50399 -0.71072745 0.18653864 -0.41541097 -0.4464064 0.9298172 -0.041068677 1.4165226 -0.41381773 -0.27986312 -1.4971377 -1.0338213 -0.25363496 1.9161724 1.4581228 0.58728266 -0.69212997 -0.6898176 1.1189971 0.75178593 -0.6946716 0.67310154 0.30699438 -1.5631648 0.6845138 -1.5841542 0.32106394 0.60418636 -0.3355669 -0.776166 0.3157494 0.32093546 -0.0819673 -0.4934051 0.29717666 -0.80323696 -0.39890602 -0.40852955 -0.66147095 0.18302348 -0.4449241 -0.8068256 0.41520378 0.44680706 0.7867093 0.23989241 0.7267327 -0.27457756 0.18236081 -0.6120258
reproduct -0.27856886 -2.021818 -0.26169425 -1.1309156 0.24978395 0.9169369 -0.66926944 1.0590023 0.05154611 -0.8782692 -0.012304948 0.2571482 -0.5122842 2.4510202 1.6778685 0.7018309 -1.5793335 -0.47489953 2.1406028 1.4329587 -1.694468 1.3446507 0.38186696 -0.5339877 0.39059168 -1.40352 0.12779474 1.308348 -0.36770183 0.7657596 1.9821064 -0.92498356 0.20120749 0.09787826 -0.6673361 -0.5746848 -0.14882474 0.7328614 0.5396592 0.17597422 0.10278414 -2.0123146 0.5733781 1.3007448 -0.3510778 -0.24449871 0.30887958 -0.6297623 -0.15406457 -0.2694701
sexual -0.5669426 -1.3643476 -0.8913583 -0.9413581 0.28889197 1.2686181 -0.41526863 1.6997668 0.0661143 -1.227755 -1.2161127 -0.40184647 0.32533526 2.4565372 1.9095209 0.13480484 -1.3410544 -0.2763252 1.7012775 1.5858734 -1.6573359 0.6439044 -0.061395433 -1.6118839 0.9215606 -1.5865306 0.36983496 0.27457285 -0.3006877 -0.1889972 0.96159744 -0.98580086 -0.36742902 -0.3790869 -0.27763924 -0.021232 -0.3146521 0.215833 -0.64712274 -0.06213527 -0.50927186 -2.3708289 -0.15326367 0.80003047 0.4945568 -0.32766175 -0.17483124 -0.88646626 -0.20617294 -0.30574825
urban -1.436214 1.004417 -0.14885528 -0.69275934 -0.56212777 0.59129864 0.6190954 0.58917224 0.8247171 -1.0306567 -0.18191908 0.8119881 -0.56995016 -0.11658836 0.3819305 0.35450336 -0.4123775 0.7657731 -0.38974348 0.24669097 0.6056174 1.1796007 0.30480668 0.32872954 1.2164257 0.019729026 -0.99326986 0.41440895 -0.20811284 0.027478265 0.5362185 -0.13451976 0.092150785 0.21633689 0.1641476 -0.13547564 0.36692634 0.42727295 -0.8734533 0.46307352 -0.28317907 -0.51795006 -0.12424099 0.26572916 0.44415468 -0.8653499 -0.6133655 0.74352545 0.52448964 0.48929667
sustain -0.64263064 0.74645895 0.0023848047 -0.55494535 -0.31330347 0.85910285 0.15190656 0.7567249 0.7003559 -0.6917158 0.13198037 0.3364298 -0.07073852 0.97552407 1.026895 0.65806 -0.2678516 0.6659663 0.89340055 1.0317981 0.16049436 1.1777405 -0.24878195 -0.0035198007 1.31541 -0.56426936 -0.69141287 0.34497902 -0.4003754 -0.035097625 1.2522938 -0.42293257 0.81476647 1.0548583 -0.11806004 -0.8727115 0.8535904 0.08693833 -0.7100449 0.2678915 0.62935305 -1.0603207 0.49053484 0.44559315 -0.34895387 0.1364892 -0.16245429 0.25275102 0.64046925 -0.067661636
popul -0.4120909 0.2404449 0.46773726 -1.2353125 -0.68982923 0.3632047 -0.86527926 1.4155495 0.043486122 -0.5259973 -0.97558385 -0.36756152 0.08060171 1.8907272 2.134155 0.2053748 -1.1823943 0.5693684 0.09062485 0.7695914 -0.23216237 1.9146749 0.07056132 -0.8866733 1.3443694 -1.0258782 0.051549908 0.68003047 -0.8770835 -0.42443463 0.77455443 0.41679978 0.008162428 0.67944074 -0.045016166 -0.85361797 -0.70925003 0.21804295 -1.1131117 0.64954305 -1.2556225 -1.0267131 0.7455512 0.25244486 0.3400304 -0.61634386 -1.0360959 -0.33794793 0.63614714 -0.27645096
local -0.7683152 0.521549 0.021696 -0.15562439 -0.8298527 0.59172267 0.1499643 -0.3538189 0.84863776 -0.87695056 -0.41569325 1.2667916 -0.85665303 -0.07106865 -0.5500712 -0.5844482 -0.08916582 -0.112146065 -0.018109579 -0.15699594 0.92126745 0.59279877 0.5506795 -0.2452313 0.57069105 0.48453468 -0.083573245 0.66078967 0.5726429 0.12094095 0.255554 -0.2651833 -0.091026425 0.55037314 0.5349547 0.55330515 0.67133254 0.66421527 -0.3923575 0.04754048 -0.16485538 -0.06673176 0.2918156 0.467163 -1.2977308 -1.2321625 -0.452682 -0.06984834 0.23332289 0.6603908
violenc 0.22530669 -1.3597208 0.11057588 0.6854046 0.50715375 -1.1254432 -0.29277605 0.18115726 -0.5495166 0.60233736 -0.9701385 -0.30326563 0.5222488 -0.7183209 -0.0011118044 -0.15055084 1.3819715 -0.7800982 1.2592989 0.058590703 0.77852905 -0.09928817 -0.8232231 -0.38152555 0.3941019 -0.7194525 0.071764596 1.0241672 0.55382854 -0.57028306 0.28610858 -0.28989258 1.244935 -0.14576845 -0.16751891 0.16746026 -0.040742252 -0.1651136 1.0210046 -0.014504019 -0.43953255 -0.28126475 0.1422599 0.6949725 -1.2596604 -0.10418454 1.3313882 0.6557047 -0.5833505 -1.2040861
qualiti 0.25830936 -0.530259 0.491618 1.4636843 -0.73682487 -2.399599 -0.9350246 -0.19214028 -0.9587687 0.04712446 -0.40171385 0.130627 -0.46833405 -1.1351272 0.7357464 0.78160065 0.7865044 -0.75777566 -1.1018759 0.8726253 1.1535254 1.1968677 -0.25811046 -0.91612756 -0.58177584 -0.96511215 -0.041496202 0.8984066 -1.5690005 -0.18704268 -0.0536454 0.5844356 -0.35033536 -0.8085208 -0.5567385 1.4196215 0.5025572 0.100568384 -0.9795753 0.7031807 -1.2216704 0.03525377 -0.28733584 0.4479943 -0.853423 -0.7318067 -0.24753156 1.6179118 0.20750701 0.24710925
deliv -0.27685073 -1.5204245 -0.53552264 0.098334424 -0.3602338 -0.6703666 -1.3982619 0.8145726 -1.3291746 -0.14773685 0.009507215 -0.75103045 -0.6912695 0.31470653 0.3721664 -0.37672257 0.91227925 -0.30399033 1.2182857 -0.14933686 0.3831296 -0.024390353 0.13416158 -1.2368953 -0.0077753193 -0.85827893 1.0732591 0.8125878 0.66882503 -1.1547327 0.6165309 0.5459047 -1.0845711 -0.059799455 0.32146263 0.68648595 -0.03766927 -0.38333452 -0.2605194 -0.7790925 -0.89778274 -0.19347793 0.2480651 0.8781955 -0.8781782 0.19227637 0.10600974 0.07625089 -0.29469576 -1.0801286
human -0.013554701 -1.046399 -0.326651 -0.7191132 0.5127637 0.047762834 0.7221223 0.96182925 0.31831944 -0.24080071 -1.4967287 0.34853584 0.025401117 0.7975735 0.65463626 -0.25172582 -0.121899985 0.11575039 0.63617283 0.026166359 0.11627745 1.0033387 -0.04337945 -0.1839179 1.0717719 -0.19038568 -0.7363432 1.3213212 0.27192104 0.042741053 0.46118972 -0.18155748 0.29784584 -0.74846077 0.5912878 0.42477402 -0.47141877 -0.109021775 0.4735117 -0.25685287 -1.2104077 -0.13692842 -0.4781631 0.8769403 0.3752382 0.023093855 -0.44296205 0.34500748 -0.71303725 -0.019584386
youth 0.15922122 -1.5024545 -0.18449439 -0.93989986 -0.45759296 0.68648547 -0.2108663 1.2712368 0.6540027 0.1629286 -1.5946913 0.30100468 0.44668707 1.6127915 1.4227817 -0.18535127 -0.94815993 0.113024145 1.1380577 0.17983122 -0.8466758 1.4869827 -0.06562206 -0.057891782 1.399429 -0.20116101 0.07663593 1.0735204 0.26305586 -0.01327156 0.6678668 -0.5924222 0.43299603 -0.11765587 0.15668178 -0.27228016 -0.328547 0.2851312 0.10614741 0.44230855 -1.5619247 0.13012238 0.19276044 0.68207294 0.3743031 -0.24096996 -0.48898464 -0.9322527 -0.13423535 -0.00096060423
govern -0.80998045 -0.20521422 -0.0032749218 0.035298035 -0.86182743 0.2360406 0.08279272 -0.77405447 0.55970514 -0.67271525 -0.30754906 1.1792259 -0.8360615 -0.1137813 -0.7550915 -0.6359567 -0.115563564 -0.10975924 0.2917521 -0.37127486 0.86778855 0.3046525 0.6305546 -0.3993244 0.0068109944 0.4108158 0.22623046 0.8486708 0.75001127 -0.001748988 0.20763914 -0.12898192 -0.150395 0.1474 0.4591076 0.6533454 0.60409325 0.72304416 -0.1998713 -0.22334747 -0.42858866 0.20704381 0.29757518 0.6833698 -1.3251965 -0.86414903 -0.055336215 -0.039598245 -0.2293748 0.49493155
global -0.7981128 0.7085097 -0.9617101 -0.7599829 -0.0822115 0.5893147 -0.35677004 0.08152203 0.07665494 -0.57313585 0.9097193 -0.07480228 0.2779897 0.18210289 -0.18585248 -0.34705934 -0.4544419 0.59249127 0.22357856 -0.5584244 0.60490483 1.5250283 -0.16835617 -1.1684594 0.6105038 -0.24525079 -0.10216155 0.08071262 0.46228155 0.09938132 0.015020206 0.658128 -0.2291745 0.06104975 0.1057886 0.62844706 -0.5972339 0.37001163 -0.9040711 -0.5062793 0.5466907 -0.9994057 0.51040924 0.8612344 -0.30247408 -0.6891737 -0.40791586 0.15421817 0.34105393 -1.1193277
land -1.9208872 -0.12260076 -0.46857792 -0.33972383 0.42526385 -0.76032287 0.1278892 0.17806418 -0.22704408 -0.5774217 1.1266687 -0.024292158 -0.6728308 -0.2382749 -0.566525 -0.55654466 -0.6795954 1.7385607 1.2522923 0.10136998 0.76824707 1.0542073 -0.36208922 0.07086233 -0.10593087 -0.23750423 -1.1217467 0.68220216 -0.19076705 -0.22495833 0.86824715 0.3053332 -0.3303265 -0.5107014 0.08835143 -0.48255417 -0.41996223 0.6016706 0.75197065 -1.0874733 0.21653967 -0.41346803 -0.51869196 1.5413967 -0.7672489 0.423356 -0.616347 0.6793652 -0.5477368 -1.6407635
commun 0.6346372 0.1949587 0.042242073 -0.036213044 0.6144891 0.28989992 0.9521884 0.99534076 -0.066706106 -0.7798564 -1.595119 0.11251144 -0.8439949 0.4689873 0.032665476 -0.6942331 0.81443274 -1.3318958 0.017743826 0.44114152 0.55982876 -0.69078547 0.64152664 -0.48995006 1.2229427 0.17987421 -0.2287418 0.62614393 0.62959874 -0.11887675 0.73833907 -0.4939973 0.020904856 -0.29523674 1.3189261 1.2471036 0.16111341 -0.51513416 0.8769225 -0.11874148 -0.942791 -0.7875035 -0.89317226 -0.08462302 -0.61284083 -0.3625978 -0.038547076 0.35591516 -0.02190193 0.77606523
gender -0.92853296 -2.0635002 0.17545275 -1.723831 0.7328016 0.5944998 0.64088637 1.6290016 0.20129757 -0.15482932 -1.6525548 0.26628473 0.26158446 2.5492666 1.2149086 -0.5704044 -1.4301112 0.36411786 2.1936455 0.6508426 -0.2157017 0.37970203 -0.6847912 -0.15434776 1.3273497 -1.0051371 -0.2141757 1.4979788 0.08918787 0.5883582 1.2992353 -0.658783 0.994851 -0.25821587 -0.1897153 -0.6796329 -0.45163485 0.24762605 0.9306221 0.09692494 -1.0739415 -1.5983942 -0.08517861 1.0597633 0.078692526 0.43367365 0.5840908 -0.24633214 -1.3251636 -0.24375187
data -0.14024343 -0.1267934 0.022171559 -0.84088516 -0.44378176 0.008339468 -1.235323 -0.21682258 -0.05271405 -0.576663 -1.5693945 -0.14732122 0.7773356 0.79410905 1.8574027 0.62747735 -0.21696246 -0.17911643 -0.61843455 0.669905 -0.091285035 1.8856972 0.07552456 -1.2712711 0.7656529 -0.87672734 0.048317794 0.4039868 -1.2803357 -0.026894199 0.18915704 0.19747037 0.62717676 0.25562426 -0.38323447 -0.80438864 -1.2038605 0.8188705 -1.1880674 0.566121 -1.3437173 -1.7185462 0.73820555 -0.18848383 0.4243 -1.4219025 -0.899014 0.28119963 0.0694423 -0.30403265
comprehens 0.34100062 -1.6223967 -0.9574482 -0.46257356 1.0950911 -0.0060201427 0.29392707 1.9109085 -0.7289899 -0.78927934 -1.7685517 -1.0093886 -0.5256782 1.2245692 0.76763594 -0.25525 0.30999112 -1.2298223 1.0754898 0.4552507 -0.53703064 -0.41957676 0.83625853 -1.5583631 0.67009336 -1.0563604 0.45890063 1.1551671 0.9986378 -0.87867355 0.68962777 -0.25997114 0.13471921 -1.124124 0.9899027 1.0509185 -0.700186 -0.5606331 0.6865402 -0.11906972 -1.7831894 -1.3023994 -0.9158776 0.49752763 0.3551196 0.054422885 1.0369295 0.52222985 -0.7191964 -0.35012478
discrimin -0.7963875 -1.5575969 0.005082304 1.1362737 -0.104834385 -3.1106317 -2.2148862 1.1017421 -1.7059181 0.1558661 0.35071525 -0.2628451 -1.3205516 -0.9650442 -0.45803684 0.20146517 0.94037884 -0.052918367 1.377042 0.18009295 1.8039349 0.113963924 -0.9603311 -0.43972853 0.3822112 -1.1211615 0.14353868 1.0974445 0.18467014 -1.2497205 1.6478903 0.44946682 -1.236284 0.08958789 -0.06898084 1.1915283 1.2742592 -0.30699542 0.8107964 -0.75867873 -0.72414255 0.9274057 -0.63307935 1.7711605 -2.718814 0.13425902 0.35645416 0.6947264 -0.3036402 -1.3556392
evid -1.17983 -0.0840951 -0.12892362 -1.5549332 -0.91868776 1.6344446 -0.9860165 0.9849818 -0.07533971 -1.5364598 -0.27212545 -0.20975593 0.21824044 2.9903655 2.1175451 -0.43185744 -1.720956 0.64294946 0.8386084 1.1182456 -0.69702893 2.4536796 0.50661325 -2.4887435 0.9169349 -1.4708163 0.6096166 1.0215031 -1.1356224 0.05403692 0.8315737 0.39733586 -0.5330195 0.20895697 -0.34178165 -0.3952112 -1.078088 0.88604313 -2.0356336 0.043968305 -0.8530592 -2.7300415 0.98505676 0.8821954 0.3202613 -1.2528548 -1.5021869 -0.1924001 0.40919557 -0.57891613
equal -0.92962265 -2.825334 -0.21961686 -1.6612041 1.1403592 0.33481643 0.55445516 1.5381594 0.14986941 -0.20917737 -2.0489705 0.5220531 0.38311338 2.7006729 1.6085923 -0.76592374 -1.4903508 0.6210747 2.151398 0.4976215 -0.48965567 0.58676034 -0.6390689 -0.4636623 1.5628387 -0.8675021 -0.46052203 1.6894817 0.10110367 0.5215123 1.5868746 -0.8448467 1.2343652 -0.3058412 -0.20812617 -0.8343175 -0.57035804 0.34593686 1.0245823 0.072625205 -1.0561962 -1.619708 0.2930331 1.471894 0.015843527 0.32744294 0.65974444 -0.20655335 -1.667042 -0.40655375
dynam -1.1832931 -0.8800413 -0.22429264 -2.1243317 -0.6178136 1.8938783 -0.9955285 1.8476317 0.17219207 -1.3578501 -0.47940502 -0.23959158 0.3219203 3.5558662 2.5648215 -0.08432538 -1.9909903 1.0816774 1.6059264 1.2380675 -1.2267293 2.5677218 0.36846936 -2.1276875 1.4915838 -1.5731281 0.27288517 1.4812466 -0.6372118 -0.05082801 1.5296109 0.32554212 -0.35232264 0.30059558 -0.14768301 -0.73722804 -0.98938817 0.6529751 -1.7360475 0.033587787 -1.094365 -2.7284045 0.9445243 1.065954 0.6048147 -0.5594596 -1.1245896 -0.38903487 0.454637 -1.0203617
deliveri 0.083736636 -0.26320702 0.32850224 1.368419 -0.29649544 -0.098677605 0.27599633 -0.8227957 -0.06763674 -0.0021577056 -0.07528755 0.27309588 -0.26005843 -1.042859 -0.029669043 0.3910556 1.11727 -0.93267787 1.3408897 0.6121389 0.7633099 0.25192198 -0.14920045 -1.2206511 -1.0162239 -0.846425 0.26924628 1.2990295 0.08765655 -0.119825214 0.15681459 -0.048705216 1.23591 -0.2471338 -0.25565693 0.62775195 1.2052643 0.0616616 -0.6560934 0.09668242 0.731195 -0.9447244 1.0649759 0.8717149 -1.3202407 -0.32516766 1.861031 1.3765465 -0.26073557 0.032153796
prevent 0.25402388 -0.9418328 -0.36096144 0.48272344 0.6367516 -0.45397583 -0.47292727 -0.3652222 -0.2641338 0.3522369 -1.0839522 -0.10194809 0.56930584 -1.0619254 -0.008983377 0.35136047 1.4882895 -0.751403 1.2302998 0.12032476 0.49924418 0.47967687 -1.037571 -0.71115184 0.033198748 -0.86727 -0.43192422 0.6630294 0.2120621 -0.18913706 0.51257133 -0.24748236 1.5355974 -0.3892629 0.09965036 -0.23502184 -0.35617244 0.5293955 0.83212847 -0.28519228 0.030717542 -0.9121278 0.56307036 0.5164773 -1.0380467 -0.81654847 1.2008332 0.6952993 -0.86826813 -1.5932839
promot -0.22223587 -1.1054071 0.5914062 -0.4779119 0.499837 -0.15763795 0.7931033 1.8513578 0.036754027 -0.20926858 -1.4503672 0.47572282 -0.48092416 1.2341111 0.44215286 -0.6978654 -0.3507253 0.12850465 1.0452491 0.6094139 0.54405546 0.18298537 -0.488118 0.2944681 1.3896438 -0.41149774 -0.7789197 1.4680607 0.0058260276 0.051840633 1.0881398 -0.2935225 0.0017574135 -0.15321974 0.49560001 -0.05213891 0.37545168 -0.22355317 1.0448587 -0.07261055 -0.9980303 -0.5310745 -0.5368741 0.77970326 -0.620567 0.5606314 -0.52006835 0.24466333 -0.45891535 -0.008438666
citi -0.8389644 0.94946283 -0.44733837 -0.4428799 -0.022652011 0.26500142 0.21540342 -0.069956794 -0.015816348 -0.93539494 -0.13534968 0.16244434 -0.3810442 0.35500988 0.056080658 -0.42275047 -0.11706574 -0.005522458 -0.7097684 -0.18004327 0.73341596 0.44528353 0.62081283 -0.56988776 1.1223942 0.1713817 -0.2626539 -0.253812 0.09723981 0.09294452 0.19491436 -0.025447436 0.014415419 0.3312422 0.31717688 0.67605776 -0.25834337 0.10003905 -0.5917001 0.19500616 -0.3306524 -0.72724944 -0.1624513 0.023839133 -0.2005712 -0.82479674 -0.3620851 0.38466182 0.23350361 0.7608885
free -0.73985445 -1.4952226 -0.9901204 1.5963763 0.21470425 -3.2859683 -2.1953573 0.57723993 -2.521672 -0.12032256 1.121597 -1.001468 -1.2249297 -1.6337538 -0.33617523 0.75976187 1.4913785 -0.68781024 1.1637826 0.51817816 1.4429344 0.19385026 -0.23490879 -1.4065884 -0.39767224 -1.5010357 0.18523318 0.957816 0.08645865 -1.3440024 1.2209814 0.6904636 -1.2863185 -0.8672994 -0.46023843 2.3269913 0.8876505 -0.54210633 0.08403593 -1.1133616 -1.0145296 0.35048485 -0.74243003 2.096083 -1.886182 0.24663436 0.94256574 1.7703476 -0.46841788 -1.4792409
design -0.082984164 0.037182096 -0.5643965 -0.4759755 0.6134376 0.32228506 0.20404187 0.49019328 -0.7475347 -1.0328937 -1.1272364 -0.39944375 -0.63767636 0.4537845 0.2560766 -0.5878522 0.6076437 -1.0715194 -4.510292e-05 0.11762747 0.24364004 -0.6079688 0.9882405 -0.9811296 0.99718094 -0.023549465 0.09275756 0.07866762 0.46070042 -0.33441088 0.67376983 -0.3023364 -0.32926688 -0.2994452 0.91813135 1.0252658 -0.64610153 -0.47372824 0.4224731 -0.45496783 -1.0009897 -0.86957747 -0.60131127 -0.059017204 -0.009794874 -0.3594998 0.011772834 0.20213267 -0.17787346 0.5494075
build 0.35803896 -0.19682448 -0.69459635 0.3170027 -0.32597354 0.68899244 0.59218526 0.107547164 0.20906056 -0.29018945 -0.34213752 0.47706178 -0.31964433 -0.41233873 -0.40102646 -0.037451964 0.63695776 -0.7899752 0.4916615 -0.25082457 0.23358028 0.7769774 0.14249535 -0.012166834 0.6943145 0.17380626 -0.3070186 0.5565099 0.65428543 0.1883902 0.29775992 -0.479808 0.09203415 -0.5164291 0.49424148 0.5548125 0.5037148 0.1672602 0.30864972 -0.5003163 -0.13009582 -0.09131942 -0.10238255 1.0952281 -0.2519093 -0.51769394 -0.39430586 -0.009961701 -0.033723045 0.25098142
advocaci 0.32219464 -1.2790803 -1.2765468 -1.217802 0.3352149 -0.3829239 -1.320331 0.13515134 0.8163896 0.21979976 -2.7185493 0.18381588 0.90000916 -0.43519202 0.92292494 0.61513346 0.37762082 -0.05299207 0.024902193 -0.4166889 0.20771904 1.8923315 -0.59941983 -1.0168036 0.5225698 -0.47036222 -0.04313612 1.0484623 0.11306833 -0.6439332 -0.13984346 0.19369738 1.1884754 -0.44721016 0.7041491 -0.11633601 -1.2446263 0.8953063 -0.7899522 0.2634981 -2.2074683 -0.7998622 0.41144767 0.082418084 0.20818454 -1.876352 0.052062925 0.69072735 -0.7132657 -1.6788728
peopl -0.048992187 -0.3206879 -0.107089795 0.47481087 -0.2678428 -0.97144663 -1.2708751 2.253687 0.45027 0.5597693 -0.3149319 0.2491725 -0.6477385 0.10057329 0.5842455 0.69570035 0.8719668 0.05856829 1.434342 0.50792897 0.32907534 0.6014112 -0.9362635 0.99334776 2.409341 -0.019243713 -0.29709727 0.2934208 1.081041 -0.6454289 1.7841856 -1.100291 0.6304382 1.2739547 0.23048152 0.49780104 1.5506746 -0.5529766 0.62002206 0.9304913 -0.71881825 1.6401733 -0.07918497 0.6978418 -1.7936093 0.15662573 0.8909751 -0.71660316 0.7224105 0.11531743
address -0.47246623 -0.5729114 0.7890483 -0.06727733 0.06286192 -0.89366245 -1.1190118 0.7947696 0.16656987 0.4155372 -1.1101702 0.5698009 0.33154675 -0.42779514 -0.0574259 0.07690467 0.71681094 0.05530859 0.6614179 0.30143753 1.2251713 0.49129218 -1.4990884 0.44665518 1.5257121 -0.5441862 -0.6791319 0.27899405 -0.22626793 -0.021744177 1.1450206 -0.39570773 0.9517201 1.1387398 -0.15250303 -1.0607657 0.2948391 0.81351745 1.0732874 0.4605356 -0.1373863 -0.33420426 0.19502856 0.32486895 -2.1813068 -0.96022683 0.07541062 -0.17774895 0.06060518 -1.1941191
access 0.25504604 -0.69876575 0.732356 1.1272905 0.102218084 -0.9311707 0.3429541 1.6063797 -0.18892536 0.1179841 -0.31486782 0.03062384 -1.1704127 0.5466589 1.4967872 0.47658142 0.27483532 -0.4610378 0.8170461 1.4811069 -0.08003819 0.1946068 -0.32655618 0.28251797 0.081300296 -0.964386 -0.2698719 1.1092877 -0.58204603 0.072498344 0.6299671 -0.3911737 -0.11113105 -0.10443392 -0.570535 0.33269283 1.1810064 -0.84559655 -0.24312548 0.6123409 0.09131623 -0.25169757 -0.47964394 0.5932558 -0.119462214 0.70049036 0.26074186 0.5427157 0.07821232 0.95494723
polici -2.0342898 0.09694594 -1.002695 -1.0615914 -0.17924887 0.24410945 0.26580814 -0.5815775 -0.038766358 -1.1400682 0.6299046 0.47264782 -0.46901712 0.39459574 -0.30081725 -0.6005926 -0.97977763 0.6834819 -0.118248455 -1.0295515 0.9801793 0.75162876 0.5782948 -0.44275507 0.9567752 0.26596466 0.024452137 -0.085249886 0.56204313 0.40997905 0.16845602 0.04665842 -0.020504473 0.30739093 -0.11067771 0.08396516 -0.63490355 0.5204677 -0.58319414 -0.3115678 -0.23560683 -0.62637293 -0.09097611 0.8679747 0.06462852 -0.7648614 -0.10176333 0.11131671 -0.36213 0.5113882
account -1.6505636 -2.2888052 -0.26844752 -0.41600075 -0.32050532 -0.57672024 -0.47973353 -0.1857842 0.07419516 -0.17263447 -0.21426576 1.0086536 -0.91165143 0.74051356 -0.4588349 -0.83105755 -0.59064907 0.14955214 1.4449924 -0.9979948 0.8985354 -0.43122053 0.024003513 0.14229834 0.4445531 -0.10953166 0.9536147 1.0312822 1.4074802 0.036654953 0.8850002 -0.55878896 0.3110809 0.6168863 -0.16296394 -0.08598493 0.48070875 0.54797703 0.35368547 -0.08763699 -0.72553277 0.42675546 0.3186692 1.0667965 -1.5002357 -0.20051445 1.1340683 -0.43544543 -1.3741435 0.6317947
suppli 0.58229965 -0.18443966 -0.13633138 1.6214216 -0.23783833 -1.6898869 -0.8395289 0.68718076 -1.5613459 0.12064363 0.5313539 -0.9582448 -0.48119348 -1.3054523 0.53307915 0.895571 1.5376226 -0.8731004 0.31527194 1.1308862 0.748287 0.87307894 -0.0898159 -1.4367199 -0.5910801 -1.224834 -0.0722455 0.9090639 -0.7798032 -1.0557649 0.09414075 1.0227028 -0.839849 -0.99305767 -0.37852386 1.942371 0.70354784 -0.7043861 -0.88777715 -0.47583923 -0.52263564 -0.41073045 -0.29405713 1.2197521 -0.23794241 0.26252472 0.040010277 2.033515 0.5203662 -0.904023
respons 0.20232432 -0.6703452 -0.1218642 0.20486343 0.26684427 -0.63475555 -0.33737838 -0.15041004 -0.09114741 -0.02510981 -1.276343 -0.044211976 -0.08549992 -0.2326387 0.047894206 0.4181026 0.9478722 -0.62755156 0.24758266 -0.24812968 0.4657813 -0.7629844 0.3714645 -0.92433137 -0.16607301 -0.21112102 0.7113145 0.14192615 0.87034434 -0.5963305 -0.36024776 0.38177058 0.43285534 0.085298285 0.59409505 0.60635734 0.023224948 -0.39691412 -0.18525834 0.29530993 -0.80687636 0.28692427 0.25739884 -0.5434461 -0.79042506 -0.038028717 1.6833315 0.23005918 -0.4341399 -0.19629355
famili 0.31012237 -0.95474565 -0.16769579 1.0110835 0.07636289 -2.5537958 -1.485125 1.169281 -1.9546715 0.507136 -0.05463641 -1.0346563 -0.6350608 -0.9652028 0.5938201 0.8133109 1.4411952 -0.44139016 0.59226525 0.6208218 0.8766623 0.03488261 -0.17971861 -0.9464876 -0.18331729 -0.9900899 0.10006989 0.5420448 -0.07175359 -1.521475 0.49681485 0.9766802 -0.88573784 -0.5196334 -0.16251747 1.7481507 0.6656111 -1.0668008 -0.22861743 -0.10016194 -1.1764705 0.5288645 -0.49410245 0.70363283 -0.73470634 0.6425396 0.77375656 1.3800182 0.17525944 -1.0142852
framework -2.5431774 -0.12178872 -0.9053156 -0.36115262 -0.6884645 -0.79594755 -0.5345536 -0.73471934 -0.27168941 -0.9070957 1.3512383 0.6816693 -1.2086858 -0.017803226 -0.92528677 -0.38768217 -0.7077507 0.86632615 0.15945062 -1.2987453 1.7126609 0.45394963 0.5270234 -0.35605237 0.650559 0.21206999 0.4332772 0.09918807 0.86205006 0.21945755 0.53083634 0.18687087 -0.4709431 0.59061885 -0.20521492 0.3991058 0.21904619 0.3791346 -0.86437285 -0.44705576 -0.19834371 0.21085358 0.10869679 1.3468724 -1.1150424 -0.576394 0.3189051 0.16441144 -0.41072842 0.61202747
enabl -0.44641426 0.02120469 -0.40538898 0.9066505 0.6530322 -0.17664704 -0.12100182 -0.7215057 -0.119709834 -0.10325667 -0.13656113 -0.03631095 0.21782826 -0.9383024 -0.2628977 0.15412897 1.4850498 -0.80288297 1.5466093 0.44877732 0.46135885 0.3582933 -0.33197808 -1.2611535 -0.086442165 -0.89997876 -0.18695343 0.5339891 0.35815385 -0.4213398 0.40427315 -0.2742759 1.75621 -0.21327114 -0.012469304 0.60177165 0.12282145 0.4812085 -0.09533031 -0.15490234 0.53423125 -1.2041305 0.8218538 0.6829499 -1.3390666 -0.83021337 1.9193915 1.2199833 -0.878958 -0.9429087
harm -0.52975845 -1.2306101 -0.67304564 0.45520565 1.229613 -0.1491685 -0.67697567 -0.09236768 -0.57757723 -0.113867015 -1.5020376 -0.37898317 0.6607495 -0.54293495 -0.0995135 -0.23432592 1.8095572 -1.1030232 2.7497938 0.29060012 0.31651232 -0.09920795 -0.6969089 -1.7698195 0.30250221 -1.3388183 -0.14389318 1.1381981 0.6582842 -0.9153408 0.7365267 -0.78658843 2.2814863 -0.3962677 -0.079075195 0.46342912 -0.07583788 0.6619786 0.65950495 -0.04912091 0.004358067 -1.7368425 1.0263406 1.0723097 -1.7938737 -1.0207045 2.923777 1.0057946 -1.6825881 -1.4119018
action -1.7216243 0.9609315 -0.068991624 -0.49802935 -0.10528118 0.46636868 0.6286143 -0.9601454 0.8398751 -1.3238571 -0.79638344 1.0897593 0.4397302 0.42148283 0.07394185 0.6778304 0.07165736 0.43582296 0.054796785 -0.2631486 1.8087287 0.3264784 -0.22986065 -0.4090965 1.9263593 -0.24724855 -0.6366686 -0.06798999 -0.22550766 0.7396703 1.5744869 -1.0086396 2.3239381 1.5324645 -0.18569258 -0.96808714 0.96978956 0.6275366 -0.48195228 0.53625286 0.3732849 -1.5027195 0.8304353 0.17023495 -1.1226746 -0.7538379 1.3416059 0.6135863 -0.35215002 1.0622977
base -0.24512711 -0.013775803 -0.039559938 -0.9438315 0.68336123 0.33229467 0.830518 1.0882988 -0.47371766 -1.0462582 -1.339079 -0.20301186 -0.7651642 1.4056752 0.5867606 -0.73863745 -0.22435278 -0.4871818 -0.024181763 0.40996295 0.39724824 -0.13911277 0.906266 -0.8605829 1.2148384 -0.14569506 -0.35579288 0.6743654 0.017869638 0.116043955 0.79889035 -0.088634096 -0.29036438 -0.4506373 0.8629113 0.7862772 -0.7413812 -0.55547434 0.31391758 -0.20346369 -1.1796587 -1.018994 -0.70154417 0.3038534 0.3388783 0.14879328 -0.39534807 0.5230236 -0.3503192 0.89797485
enhanc -0.18109623 -1.077805 0.24010508 0.53450453 -0.7240509 -0.12957053 0.7014683 0.013818091 -0.051423263 -0.30717644 -0.22666337 0.7626254 -0.84929866 0.8650481 0.81215096 -0.059628166 -0.8818324 -0.719006 0.6111612 0.39167267 0.4029849 0.4928726 0.23784916 -0.6219776 -0.28580967 -0.5694637 0.55066645 1.2440579 0.020154538 0.5478094 0.22452374 -0.021903867 -0.03377836 -0.23505789 -0.6577211 0.6844777 0.9416074 -0.24084342 -0.86231506 0.22820836 -0.0019425859 -0.7047676 0.31581676 0.9540085 -0.34367207 -0.18545493 0.21902473 0.09488633 -0.18174697 1.2677997
technic -0.5962999 0.48687825 -0.18122919 0.36848244 -0.14168483 0.017457524 0.40461403 -0.4810794 -0.13771708 -1.0750124 0.025105769 0.28360456 -0.9537067 -0.1066789 -0.08806563 -0.4467295 0.12454233 -0.47193733 -0.28776497 0.23371895 0.61340743 0.4295692 0.82771766 -1.111605 -0.36847293 -0.24914213 0.19312042 0.3803195 -0.20726642 -0.11038843 -0.2606909 0.24084695 -0.6233946 -0.2963122 0.13165599 0.8931038 0.027867904 0.1996853 -0.98333365 -0.37100893 -0.15075724 -0.82741094 -0.14944685 0.6208804 -0.11967745 -0.6970616 -0.42063892 0.75955033 -0.23660803 0.7086202
countri -0.50725436 1.3445923 -1.0074426 -0.40439993 -0.21776041 0.8298717 -0.7964257 0.35127774 -0.09823241 -0.92507744 1.4926032 -0.49009502 -0.11632516 0.6228371 0.120849654 -0.39360967 -0.46733767 0.46989152 0.3091389 -0.07963054 0.08566938 1.5035131 0.32921997 -1.9463539 0.27979797 -0.39806187 0.38462046 -0.19106427 0.2818011 -0.2892559 0.022613222 0.8751412 -0.80924183 0.2033249 0.25585088 1.3432317 -0.66831857 0.18099451 -1.5905775 -0.4918695 0.66258067 -1.3521125 0.62585866 0.6488255 -0.46397617 -0.7604604 -0.4022 0.0919722 0.7877615 -1.1367607
demand 0.50490326 0.38850102 -0.47404116 1.276443 -0.32309267 -1.326743 -0.8672845 0.31756964 -1.645581 -0.13466848 0.603067 -1.0085251 -0.13966767 -1.3328997 0.58214617 0.89348054 1.3116919 -0.62018156 -0.015795495 0.9576255 0.36285368 1.211516 0.18484712 -1.2952405 -0.42770886 -1.0826491 -0.32068583 0.45129535 -0.99029815 -1.0426366 0.18110597 0.8228204 -0.82599825 -1.1036855 -0.3939102 1.6688195 0.40549943 -0.5352001 -0.8492176 -0.35833275 -0.6163896 -0.5085139 -0.2970263 0.86546385 0.034593318 0.012233511 -0.4127474 1.7792172 0.6785056 -0.92373717
evalu -0.5264134 -1.3170786 0.3130559 -0.959681 -1.1814251 0.5653713 0.0009982372 0.21583906 -0.029993128 -0.57802266 -0.9509698 0.30047154 0.45973852 2.2259097 2.0416641 -0.14598021 -2.2683852 0.39263096 0.5137045 0.63074946 -0.5122256 2.1999447 0.3515053 -1.549046 0.069458455 -1.1370852 0.42232344 1.5127938 -1.4770348 0.4205288 0.38576502 0.4009788 -0.031228881 -0.32653305 -0.9682767 -0.3418334 -0.81922245 0.7260838 -1.5445328 0.33975938 -1.4004788 -1.7814462 0.79904574 1.1386337 0.8637186 -0.4870218 -1.0041239 -0.07729169 0.058458377 0.24365026
key -0.5322342 0.55847776 -0.20377618 0.0015190211 -0.75888085 -0.4843143 -1.0971113 0.7870725 0.21279563 -0.18322532 0.5575628 0.4962333 -0.5771048 -0.53691995 -0.43076554 0.17284916 0.10636699 0.37562862 0.030633243 -0.10099236 0.99232113 1.1619257 -0.36852065 0.29185042 1.1233182 0.09766797 -0.41373807 -0.021074345 0.41041347 -0.21890499 0.8218803 0.18262902 -0.57661754 0.9236976 0.23654445 0.21428134 0.64907247 0.40851435 -0.12974802 0.12759809 -0.15661566 0.40463537 0.005528832 0.6369233 -1.6166389 -0.77700555 -0.8400933 -0.26809108 1.0658995 -0.5805696
hous -0.9486878 1.4533068 -0.0045893868 1.0038552 0.53606755 -0.87896657 0.52110255 0.4789742 -0.29862374 -0.864557 0.47635263 -0.26792926 -1.1053721 -1.1675785 -0.04651965 0.63163126 1.5176526 0.44501203 0.090719126 0.7962736 0.8760477 0.120911725 0.2777176 -0.107789695 0.27462807 -0.46490747 -1.1205964 0.33386424 -0.69912255 -0.8453857 0.62985426 -0.025695255 -0.08834762 -0.32444367 0.41852185 0.5912675 0.69137096 -0.61387867 -0.2744477 -0.41126156 0.17251498 -0.051536795 -0.7905273 0.370904 -0.004237628 0.48171994 0.1670187 1.9988943 -0.055402964 0.1241469
poverti -1.3056184 0.1016852 0.08869739 -1.0215712 -0.9437381 0.7506362 -0.6988156 1.495346 0.27011684 -0.91766286 0.27559057 -0.021744503 -0.6494544 1.5547646 1.4032642 0.96051985 -0.95752686 0.90844125 1.1968153 1.4796964 -0.7321559 1.0884769 0.2821841 -0.0637672 1.0083324 -1.0045221 -0.40587994 0.48086146 -0.7235324 -0.70462036 1.5069169 -0.110872515 -0.6089787 1.2300537 -0.19411671 -1.204848 0.5615846 0.2767283 -0.9072761 0.2928903 -0.14488591 -0.92797476 0.52835244 0.42846015 -0.28306225 0.2699107 -0.7386114 -0.16178207 1.2551324 -0.5897687
republ 0.06272615 -1.1197925 -0.005953494 -0.48177695 -0.034311492 -0.18723351 -0.61079717 -0.07409904 -0.37252712 -0.063544124 -0.84417975 -0.31491774 0.5433362 0.45490777 0.5726665 -0.026339991 -0.19229731 -0.4088386 0.23302628 -0.048200846 -0.141306 0.29603645 0.18781303 -1.2747378 -0.27178067 -0.7767014 0.74928606 0.8738087 -0.098375805 -0.29142076 -0.2385294 0.4762122 -0.07113229 -0.30635124 0.20882456 0.13901022 -0.50886714 0.17266096 -0.47235447 -0.26429892 -0.5830963 -0.6223259 0.415157 0.22597927 -0.17687006 0.03873975 0.28233933 0.14490381 -0.39369848 -0.8263415
public -0.46746126 -0.17111237 -0.055350505 0.06604897 0.0035510052 -0.6046134 0.04989726 0.25057563 -0.15594068 -0.68712485 -0.9268063 0.3952361 -1.182146 -0.023337707 0.20898134 -0.4016845 0.4644046 -0.4204588 -0.34455904 0.3826057 0.42947045 -0.23202808 0.8632623 -0.045488324 0.39079812 0.32868326 -0.17071243 0.43740204 0.12825404 -0.31262168 -0.07893859 -0.42947754 -0.30325714 -0.255397 0.34164426 0.9162573 0.31435564 -0.15293546 0.008129681 0.45382848 -1.2501602 0.32893243 -0.81330913 -0.048262045 -0.2357832 -0.38715333 -0.13545355 0.49324945 -0.478785 1.38323
matern 0.17390387 -1.5113271 -1.245071 -0.49701837 0.67858726 -0.9871199 -2.011472 1.3484294 -1.4371502 -0.63703173 -0.8830269 -1.0770038 -0.40555876 0.25947395 1.2384328 0.9498871 0.9766135 -0.6772706 1.1745028 1.0396726 -0.34785864 -0.49464276 0.34290287 -1.8144381 0.10371663 -1.2404722 0.7641458 0.013781059 0.4127547 -1.4028347 1.1338838 0.23050383 -1.0822476 0.014590579 0.3771484 1.5737658 -0.15308627 -0.74962586 -0.27657798 -0.39622158 -1.1807928 -0.8163458 -0.3829255 0.050078053 -0.66323656 0.2686822 0.92309934 0.22687197 0.040410496 -1.3177904
protect -0.17961988 -2.2921555 0.44971094 0.3100363 0.57324845 -0.2944504 1.3629485 1.7951179 -0.18885146 0.38475817 -0.587924 0.40499017 -0.23877358 1.6358504 1.5071561 -0.42950532 -1.1860237 -0.38109723 2.1794786 1.1441182 -0.14102402 0.62411284 -1.3608015 0.023994453 0.59038186 -1.4058372 -0.2932325 1.4362688 0.1165237 0.79586166 0.8214816 -0.41403207 0.98598516 -0.29563257 -1.1863115 0.0069477204 0.9883278 -0.41563144 0.30459595 0.53879213 0.6733432 -1.7119813 0.21824338 1.6023747 -0.38561141 0.4874662 0.93266565 0.088365465 -0.6086392 0.1998216
analysi -1.4643788 -0.009251587 -0.19087413 -1.3739332 -0.96674454 0.7641625 -1.1994934 0.5531257 -0.11502845 -1.2185183 0.16122776 -0.38087064 -0.21406919 1.5791277 1.2275076 0.3841697 -1.1969153 0.8137196 0.2855979 0.4854187 -0.5364184 1.3772081 0.8690334 -0.995464 0.71323603 -0.8595856 0.3334114 0.30272985 -0.8878128 -0.66834676 0.71623456 0.40169 -0.99471164 0.7441419 -0.09367862 -0.8940398 -0.6091379 0.6367506 -1.6033964 -0.058445513 -0.729943 -1.0727279 0.6275759 0.46097562 0.3511481 -0.21392441 -0.89916146 -0.11153021 0.66876405 -0.4553262
conduct 0.22723486 -1.5639669 -1.3060929 -0.7270512 -0.1053682 0.24741341 -0.1964077 0.108641505 0.06037038 -0.2289149 -2.174768 0.15652455 0.652741 -0.030809408 0.6252952 0.38344827 0.5567655 -0.45987996 0.4544989 -0.4193188 0.18162599 2.0232968 0.21447547 -1.4425088 1.0216715 -0.6190528 -0.16904676 1.270438 0.61892503 -0.19298194 -0.063466154 0.032462306 0.570772 -1.0925286 0.54659593 0.73344636 -1.3708587 0.6257301 -0.19823088 -0.33055583 -2.249136 -0.35450867 0.1334511 1.2994018 0.56848246 -0.9189225 -0.3544309 0.49385443 -1.000972 -0.7759424
level -0.6172311 0.36265385 -0.5996929 -0.36371532 -0.42767945 0.2686503 0.46018115 -0.035748992 0.017860537 -0.8348126 -0.17392847 0.5338516 -0.8281373 0.011945701 -0.5753445 -0.7191686 -0.3339477 -0.3367031 -0.506773 -0.5949454 0.8867527 0.14418948 0.91457176 -0.7354496 0.6495276 0.5137321 0.15161076 0.18797962 0.93516487 0.16200194 -0.034537885 0.29976335 -0.6777936 -0.06128564 0.53760165 1.3705001 -0.061526988 0.110814035 -0.44089535 -0.22421877 -0.6568483 -0.33365154 -0.3273772 0.34993818 -0.44566825 -0.90446943 -0.27144685 0.097711846 0.34966442 0.69803184
social -0.4076765 -0.35432085 0.34747386 0.3983426 0.3776927 -0.5202118 0.7656906 0.70536065 0.42484364 -0.27111787 -1.1136006 0.52115077 -0.43658534 0.41275883 0.8365693 0.28428346 -0.10514074 0.12178491 0.34426597 1.0377567 -0.07847594 0.48539528 -0.059129354 0.6677286 0.832326 -0.412959 -1.0698087 0.9608224 -0.6111977 -0.055281103 0.22240579 -0.72727054 0.8577514 -0.3220889 -0.009856617 -0.1404258 0.5927763 -0.14462748 0.17244227 0.7382522 -0.5729269 -0.051459193 -0.43081856 0.20132236 0.06922372 0.042802807 -0.025703706 0.8749381 -0.6040897 1.1885083
product 0.007820198 0.30479878 0.054337546 0.79224265 -0.46276268 -1.0244864 -0.90737146 -0.4208065 -0.86846054 -0.79046893 -0.71553975 -0.23381452 -0.17645702 -0.42862543 1.0565295 0.34305975 0.685953 -0.64572024 -1.0181364 0.90900254 0.49510267 1.582475 0.45705003 -1.0437665 0.059899505 -0.8129969 -0.20196085 0.45746192 -1.6767956 -0.5234911 -0.1073566 0.15805355 -0.22620872 -0.5518871 -0.37357083 0.6172746 -0.3704982 0.46356913 -1.196924 0.3389442 -1.3268864 -0.81559336 -0.013392248 0.31346712 -0.015442889 -1.2137555 -1.1119076 1.1670952 0.02465821 0.431528
engag -0.2024775 -0.50743 0.18782827 -0.54942733 -0.35481325 0.46717152 -0.23492037 0.4619105 0.4056898 -0.5262028 -1.0876429 0.775098 -0.19724913 0.48804453 -0.29856154 -0.95185137 -0.19910023 0.10576879 0.26662424 0.014949616 0.60790735 0.5464993 0.09407492 -0.3513641 0.79453015 0.031866495 -0.049865223 0.86704975 0.4110744 -0.12648058 0.22148965 -0.04109207 -0.3861107 0.2704471 0.60843456 0.3489761 0.09132394 0.68795884 0.32924062 -0.21201856 -0.920959 -0.27541232 -0.004964576 0.56190693 -1.2187935 -0.8184867 -0.9779013 -0.349598 -0.10181991 -0.31782243
vulner 0.25107798 -0.514169 0.5443992 0.8016112 -0.4234536 -1.4215271 -0.6768288 2.329284 0.10772992 0.7927701 -0.5201552 0.42280078 -0.7644755 -0.42662477 0.34292465 0.59656674 0.5377265 -0.1771284 0.88867706 0.79310054 0.7949511 0.5229429 -1.2308686 0.94429237 1.6227353 -0.3049301 -0.7684487 0.5687356 0.46019715 -0.42555037 1.2505193 -0.29834098 -0.1699736 0.70408046 0.16837215 0.41836447 1.3895714 -0.41190174 0.9592684 0.68474406 -0.68666285 1.0316129 -0.5404521 0.5528696 -1.8181615 0.0017723228 -0.03964478 -0.18636039 1.155866 -0.37818348
effect 0.059884578 -0.57302815 0.39524388 0.8745398 -1.3423519 -0.3335609 0.46985325 -0.044806316 0.01063949 0.09024858 0.0028697678 0.69285494 -0.35749128 0.017851226 0.72762936 0.6871387 -0.872959 -0.77410626 0.44074443 0.7579375 0.6387893 1.4839063 0.08016647 -0.99906296 -0.5502663 -0.8340193 0.15472327 1.3570001 -0.1453203 0.44938892 0.025214724 0.61407524 0.32452884 -0.48342612 -0.7972572 1.2346631 1.3142177 -0.024514263 -1.5884572 0.6998874 -0.23516276 -0.95834076 0.7289867 1.1859869 -0.42190307 -0.4645075 0.5772376 0.90037745 0.6741705 0.7921893
advanc -2.7036715 -0.94627315 0.21634592 -1.383516 0.8694939 -0.10917187 -0.04228492 0.046851724 0.039994925 -0.81198686 -1.1179135 0.70021623 0.7874957 2.2978678 1.100647 -0.7209232 -1.0638839 0.9634275 1.3760462 -0.058423564 1.244928 0.835296 -1.1437155 -0.41540167 2.2820096 -1.1824471 -0.63844883 0.79238445 -0.7737727 0.9802134 1.5663528 -1.2371352 2.3384788 1.1506499 -0.99708414 -2.148008 -0.5155283 0.8001331 0.37927225 0.40674597 0.12182456 -2.2512908 0.6224764 0.97822565 -0.9281944 -0.63171077 0.8861834 0.04111136 -1.513389 0.18710934
modern 0.017266162 -0.37592897 -0.61778796 2.0433822 -0.18889458 -3.2093637 -1.5990405 0.49511987 -2.5224102 0.17818685 0.74072343 -1.1026229 -0.72052217 -2.1689105 0.2968691 1.1476074 1.8595614 -0.7454645 0.41708916 1.0754553 1.5827246 1.3251634 -0.13509679 -1.6255205 -0.59287524 -1.4628866 -0.5300885 1.0278764 -0.79578495 -1.4603462 0.4126628 1.242638 -0.93124175 -1.3519751 -0.6431308 2.629468 0.77191454 -0.77158415 -0.8327649 -0.56967133 -1.2323378 -0.22030792 -0.6901986 1.84254 -0.8185487 0.006516002 0.28934902 2.696851 0.34047142 -1.2068279
unit -0.27022836 -0.45340055 -0.5959551 -0.21673506 0.008639224 0.34908012 0.18941922 -1.1500899 0.23866734 -0.4361448 -0.41145873 0.38106126 0.40927875 -0.330937 -0.43673804 0.11074239 0.34079972 -0.116722554 0.37610975 -0.6225566 0.6803288 0.06276913 0.1987564 -0.98204756 -0.15275753 -0.19626972 0.2946911 0.5496205 0.6169372 -0.006917007 0.052180625 0.09208916 0.77641207 -0.13722575 0.2245089 0.4792153 0.20891432 0.33721253 -0.57825714 -0.37725365 -0.14813463 -0.4746221 0.62277544 0.42907423 -0.44273996 -0.11963064 1.0159942 0.48622334 -0.67632854 -0.28516996
educ 0.25633442 -1.5829431 0.14901908 -0.82795787 1.2744675 -0.20151249 1.3986547 2.0170155 -0.580317 -0.6845299 -2.2677355 -0.085502245 -1.0035918 1.5756739 1.0291067 -0.9519364 -0.19937989 -0.796293 0.932049 0.80780447 0.106123604 -0.7258954 0.71775395 -0.455667 1.2521851 -0.35900447 -0.42647707 1.588324 0.3284933 -0.026080348 1.0749104 -0.3730805 -0.046336185 -0.9682874 0.9525008 1.1528617 -0.52046424 -0.96453345 1.4350185 -0.17575029 -1.9992465 -0.7993915 -1.1890508 0.50858927 0.30064297 0.79162115 0.2908132 0.72854525 -0.94341844 0.8112114
provid 0.03194188 0.17145039 -0.2588406 0.86581784 -0.22239037 -0.32808077 0.33541498 -0.09411899 -0.12246311 -0.37647396 -0.029073332 0.10571422 -1.0344449 -0.24847065 0.2383695 0.11934129 0.502366 -0.83293205 0.08601381 0.33646888 0.29028141 0.15337805 0.55752975 -0.7360343 -0.42534623 -0.15005018 0.31604967 0.31205028 0.1601905 -0.13304241 -0.06932355 0.0074195494 -0.27980128 -0.36991227 -0.0771044 1.0848218 0.48055983 -0.33038166 -0.8184418 0.052204613 -0.17670004 -0.056993164 -0.17737964 0.58836275 0.02636388 -0.16101906 0.35436302 0.55813015 -0.08163955 1.0000063
approach 0.034300752 0.08352226 -0.51539475 -0.8374538 0.21575312 -0.13353318 -0.60198134 0.22187044 0.5938655 0.21046399 -1.2832776 0.22943132 0.4061785 -0.6940911 -0.02227714 0.77626806 0.6470236 -0.054748863 -0.12952544 -0.39161897 0.8779608 0.656481 -0.7577616 -0.2816335 1.015689 0.08469136 -0.48220342 -0.096579485 0.4351691 0.11307614 0.27860987 0.17082259 0.81592816 0.49497205 0.532553 -0.5926678 -0.5299792 0.34901494 0.16536933 0.15286043 -0.34702632 -0.39644098 -0.03569818 -0.32118747 -0.52596265 -1.0009036 0.23752233 0.14059433 0.22165576 -1.3165685
demograph -0.7058542 0.37715423 -0.493475 -0.2630132 -0.8406808 -1.3900753 -2.1502402 -0.48215792 -0.78751856 -1.2443275 -2.3155882 -0.18949965 0.46309474 -0.34904242 1.6684033 1.2268598 0.620556 -0.058059976 -1.5630039 0.6353238 1.1717238 2.6286206 0.8531574 -1.995786 1.3246876 -1.046031 -0.17036426 0.25187227 -1.5712037 -1.1419905 -0.018000815 0.3311892 0.5970497 0.5537719 -0.121115744 0.4098423 -1.3486763 1.0812988 -2.3478081 1.2253497 -2.794636 -0.9056167 0.22163299 -0.24111943 -0.21495023 -2.4199696 -1.1089329 1.5466394 0.2349632 0.4200948
coercion -0.79965895 -0.9341743 -0.27297518 2.2565374 0.20879169 -4.1850324 -1.5758857 0.85389507 -2.5333784 0.680928 0.9289358 -0.6233032 -1.1271794 -2.3573482 -0.12789081 1.1478822 1.9569913 -0.4904974 1.0461226 1.0007256 2.3193922 0.60370034 -0.9885052 -0.925683 -0.1855301 -1.3930002 -0.9922586 0.99211526 -0.564813 -1.1586483 0.90755236 0.980402 -0.3582326 -1.0287126 -0.8477824 2.4060466 1.4513558 -0.70750624 -0.08827594 -0.21190517 -0.99172825 0.37524086 -0.761075 1.979343 -1.9422742 0.42019966 1.3140128 2.6996315 -0.2335795 -1.0903045
live -0.17254308 0.38977927 0.75670695 1.2516679 -1.0303159 -1.949369 -1.054968 2.0724473 0.21867754 0.4222833 0.16767186 0.59698564 -1.509525 -0.6387199 0.5149723 1.0973326 0.6441576 -0.020692935 0.3808437 1.0002867 1.1919377 1.0737886 -0.86886984 1.0813112 1.7022303 -0.19075872 -0.8486207 0.5778606 -0.03912173 -0.51746505 1.5711223 -0.25760186 -0.2963638 1.0786119 0.020498794 0.7468479 1.9619619 -0.49720842 0.022613805 1.082848 -0.63770056 1.5658298 -0.52554244 0.6121157 -2.0607693 -0.22279245 -0.3037444 0.16561297 1.4806976 0.51923525
dissemin -0.49462485 0.7153258 -0.16936415 0.25479442 -0.5893672 -1.1695784 -1.6382241 -0.36555505 -1.0344961 -1.0885472 -0.8936471 -0.3939521 0.12762688 -0.29025143 1.2961726 0.38031337 0.5130039 -0.33574456 -1.4529257 0.5076627 0.7379921 1.9570348 0.84999275 -1.5496542 0.8015246 -0.9305549 -0.101750456 0.42308655 -1.5934563 -0.6110054 -0.08374539 0.4720655 -0.20533693 -0.01567412 -0.36246 0.56599265 -0.8790184 0.51959413 -1.7605524 0.49806872 -2.0081763 -1.1913364 0.034152243 0.021818748 -0.12976044 -1.7813551 -1.5902019 1.3455768 0.25974992 0.5142176
risk 0.343751 -0.70752287 -0.7406585 -0.1157415 0.4258526 -0.23261386 0.5880327 1.4807532 -0.24090204 0.2849704 -1.3740485 -0.16817538 -0.34336528 -0.65605044 0.18463254 0.51068604 0.03082608 -1.5331557 0.74064404 0.059273332 0.21582347 -1.1297646 0.0729491 -0.19384083 1.5893416 0.15866892 0.18335629 -0.4872181 1.7753893 -0.23710223 0.6912115 -0.20511855 0.66955936 0.1257514 0.5310005 1.3208758 0.44501364 -0.7183306 0.7421709 0.7025295 -0.84839505 -0.632499 -0.7308993 -0.65601575 -0.35094458 -0.55870634 2.2762694 -0.34610793 1.0686631 0.12184861
water 0.72530854 0.37320498 0.25835344 1.8856026 0.40730396 -1.5336738 0.91019094 1.5046806 -0.5717718 0.25169477 -0.457489 -0.22385535 -1.15157 -1.1801294 0.7432614 0.86634755 1.4676324 -0.76847243 0.23887248 1.5376844 0.46802756 0.6213316 -0.20273909 0.13192788 0.047504522 -0.6849963 -1.2601422 1.1088461 -0.7434145 -0.29662737 0.34259322 0.0905027 -0.21301442 -1.2900654 -0.20515852 1.7266966 1.2792436 -1.1840149 -0.1406145 0.385424 -0.5693572 0.08833275 -1.3814838 0.8181681 0.1598318 0.74338317 0.051078778 2.066774 0.27218547 0.6231906
focu 0.36236295 -0.18421836 -0.26386097 -0.5551414 -0.057479285 -0.15443055 -0.58452255 0.19841704 0.6588769 0.41577134 -1.7673395 0.33627823 0.38545427 -1.152224 0.6248099 1.240956 1.0226996 -0.66800404 -0.23223028 0.0063031875 0.60642064 0.47040346 -0.7551312 -0.22662741 0.85956895 -0.16461138 -0.2246109 0.0073509514 0.53940594 0.1729539 0.23610748 0.02806708 1.2366325 0.35630542 0.35111177 -0.513726 -0.52808267 0.4371767 -0.102739975 0.81446874 -0.5791967 -0.62124217 -0.039607137 -1.0026423 -0.40595892 -1.5416538 0.9167007 0.18473712 0.48735064 -1.2430072
socioeconom -0.83699965 0.7412336 0.09697735 -0.060721453 -0.7939641 -1.006609 -1.4859513 0.11636397 -0.081128135 -0.8960817 -0.88074774 0.19982629 -0.069574565 0.08647764 1.5221722 0.70791376 -0.117134355 0.106736004 -1.3524292 0.6492577 0.6453099 2.0272806 0.31108853 -0.7995984 1.152176 -0.62078834 -0.22010931 0.083755665 -1.5171379 -0.27368066 0.12757476 0.2227107 0.007569624 0.44179744 -0.332797 -0.0059790993 -0.31368902 0.6394204 -1.7579343 1.0770282 -1.756946 -0.7920883 0.14425205 -0.21985643 -0.24368481 -1.684746 -0.9945409 0.70669353 0.61772674 0.5266633
improv 0.3048348 -0.029222004 0.683104 1.3420682 -1.6895425 -0.82243973 0.014829472 -0.26928243 0.1950021 0.116933875 -0.23804292 0.9948582 -0.7736186 -0.5016966 0.612118 0.7033685 -0.27392572 -0.7210414 0.032976717 0.9589428 0.8553796 1.5247798 0.35381147 -0.7102496 -0.65821594 -0.39972135 -0.023268674 1.4828594 -0.37383544 -0.004085868 0.068048276 0.5787561 -0.14214854 -0.47264364 -0.60297406 1.5133744 1.6244742 0.07314 -1.427113 0.93476 -0.6769929 0.024200413 0.5048632 0.8614149 -1.0762091 -0.7253021 -0.03844636 0.8591317 0.74061775 1.0194795
target 0.06609934 0.45171347 -0.1163342 0.36209428 -0.33132142 -0.6182338 -0.23318009 0.64587206 0.3325472 0.08089624 -0.19892839 0.3427202 -0.6156523 -0.5794287 -0.07132529 0.27980843 0.3183407 -0.009881469 -0.10158319 0.111955054 0.69693804 0.8833582 -0.022150105 0.17034422 0.79933256 0.3101442 -0.4851792 0.14308478 0.2697946 -0.06327125 0.31554505 0.062066015 -0.09879943 0.15753862 0.29012695 0.72245234 0.34013826 0.07530692 -0.096709274 0.4023194 -0.6950153 0.5475019 -0.49531028 0.4287367 -0.72295034 -0.42862096 -0.35150123 0.14892095 0.59325296 0.23858257
integr -0.29019102 1.3954921 -0.6751885 -0.83074564 -0.15865919 1.6521351 -0.2921764 0.94247824 0.36031663 -1.0304251 0.86196214 -0.3406221 0.19532646 1.4398912 0.5929949 -0.58479166 -0.9355544 0.46089762 0.4599393 0.2015148 -0.37817723 1.7999353 0.35665286 -1.7536482 0.8621952 -0.39871457 0.13761297 0.12459335 0.1398528 -0.088010944 0.30861318 0.5731485 -0.45856065 0.26411012 0.26146847 0.8209275 -0.67111397 0.24497631 -1.5725383 -0.3170504 0.6624463 -1.7991265 0.77173835 0.6377764 -0.04445895 -0.63542503 -0.7346813 -0.21231315 0.884463 -0.896222
need -0.19576587 0.5273057 -0.14995179 0.13850361 -0.06752807 -0.48282874 -0.5257554 0.6710145 0.26453227 -0.24224216 -0.57618177 0.21209067 -0.8456106 -0.21285486 -0.109141625 0.21707103 0.7743451 -0.14462648 -0.16632384 -0.12301408 0.66730857 0.081682265 0.058369245 0.14061305 0.99623924 0.27360043 -0.17063795 -0.11513451 0.46122327 -0.30956554 0.5722944 -0.29981726 -0.1355699 0.6888571 0.6370246 0.299883 0.24523929 -0.1418308 0.113507755 0.30466324 -0.47603646 0.7062777 -0.36328578 -0.06411575 -0.86694777 -0.45891967 -0.02928032 -0.09621318 0.3847285 0.3011782
erad -2.1536903 -0.22958119 0.29029223 -1.7771547 -0.7581266 1.3692768 -1.3791 2.1765888 -0.053149216 -1.8493594 0.44945878 -0.25714546 -0.69550836 2.2220988 1.6700556 0.94071096 -1.0191221 1.2832259 1.6884388 1.3848612 -0.8949001 0.823305 0.60138744 -0.74185824 1.5529909 -1.5578978 0.10697073 0.69839793 -0.80980057 -0.9371846 2.4524853 -0.10277518 -1.0807319 1.2564682 0.10239925 -1.6363378 0.5853235 0.5351927 -1.0474724 -0.19348551 -0.25391123 -1.8003753 0.54916364 0.6861923 -0.19607405 0.12850827 -0.3114365 -0.253713 0.8190857 -1.0374388
resili 1.0417292 0.7071088 0.079016164 0.48627457 -0.33905116 1.1712469 1.440329 1.7662745 0.37131596 0.32894084 0.080569915 0.059060976 0.19465859 -0.48650497 0.38225776 0.8766355 0.13912533 -0.6887143 1.0736151 1.0729227 -0.1917989 0.8316795 -0.41633177 -0.32122135 0.98108834 -0.5568604 -0.58111686 0.5623322 0.46138337 0.031021232 0.30715987 0.3958291 0.49995115 -0.24570523 0.16578794 0.790999 1.3544971 -0.6133235 -0.36971775 0.19775935 0.7106806 -1.3813462 0.07422548 0.4086947 0.09374297 0.14981814 0.74891424 0.902444 1.5485004 -0.63110036
process -1.0082904 0.26618642 -0.5103518 -0.3851158 -0.769911 0.44386134 0.19040185 -0.30506322 0.40185365 -0.67815995 0.099881835 0.7122526 -0.6218047 0.3821975 -0.118406974 -0.096122414 -0.57013005 0.06378417 0.03263673 -0.43479267 0.642016 0.7411998 0.5805081 -0.23554835 0.7819586 0.36909178 0.08333584 0.1860645 0.5004068 0.33532166 0.3845851 -0.30516976 0.19012009 0.422165 0.0864037 0.39273942 0.31575513 0.35566038 -0.6995515 0.16291766 -0.3291737 -0.0077790883 0.15037891 0.7062416 -0.23812123 -0.70809656 -0.0066551976 -0.1111359 0.08389506 1.0392182
econom -0.44364998 0.09652385 0.4350848 0.4390064 0.12714635 -0.5271466 0.50024015 0.26191428 0.6228883 -0.35443228 -1.0558736 0.59175795 -0.1413011 0.2870242 1.046678 0.5603205 -0.06372846 0.2871093 0.0009988425 0.85533667 -0.079490766 1.1390941 -0.1606601 0.6820881 0.94495195 -0.39693138 -1.173446 0.8475098 -1.0887183 0.0047607548 0.22336411 -0.8086919 1.2673343 -0.13971217 -0.30939692 -0.3553648 0.5185479 0.14909689 -0.34664726 1.0159986 -0.6404292 -0.062870644 0.018435426 0.15437135 0.14064135 -0.33039266 -0.35366496 0.99550456 -0.5252157 1.2906812
knowledg -0.80886215 0.67628545 -0.32719392 -0.09368541 -0.6763559 0.012496202 0.523433 -0.36817962 0.17357542 -0.6480298 0.3085825 0.62358576 -0.53886974 -0.27980465 -0.06719027 0.008412268 -0.44278803 0.02937033 -0.62815726 -0.088454336 1.0277331 1.1778893 0.3647624 -0.427937 0.29710016 0.11679749 -0.32792538 0.16026147 -0.10719535 0.42715687 -0.17584021 0.3232006 -0.09804856 0.0028352856 -0.22726348 0.47824356 0.33110985 0.36639842 -1.2423483 0.26714328 -0.14125533 -0.5502552 0.035015766 0.7495246 0.016851645 -0.8180482 -0.39615536 0.5863186 0.2844103 0.79744995
state -0.40455693 -0.51857805 -0.14444059 -0.1919746 0.010621621 -0.08736271 -0.10286269 -0.16325401 0.022045936 -0.32073388 -0.69238305 0.17079875 -0.1808093 0.2388722 0.031403255 -0.15729083 0.101029836 -0.02525177 0.24687734 -0.123721786 0.19504933 0.11231001 0.2667058 -0.40077028 0.08297938 -0.25173587 0.14407335 0.563347 0.10039593 -0.24318707 -0.009127096 -0.11327177 0.12158251 -0.13744071 0.25864246 0.054881476 -0.19097176 0.20945215 -0.08730322 -0.07101684 -0.56578666 -0.067399494 0.12340654 0.24110356 -0.29601815 -0.27532643 0.10655282 0.24773471 -0.54556745 0.060622387
societi 0.4173287 -2.1399837 1.6264449 -0.6735273 -0.4234977 -0.031988658 -0.76390094 2.4857047 0.53075504 -0.08890971 -2.7915885 1.5490941 -0.396233 0.77993876 -0.8201916 -2.1266801 -0.031652838 -0.0893054 1.3400555 0.8059769 1.4318506 -0.35910165 -0.68479085 0.4358135 1.7361368 0.022984106 -0.365047 1.8184519 1.1571301 -0.3820152 1.0867729 -0.3539444 -0.7935871 0.8613365 0.8435576 0.3746161 1.0538168 1.1628467 2.4986148 0.3411267 -1.9209865 -0.39599928 -0.41106042 0.8663303 -3.9676685 -1.0941914 -1.492265 -1.2316797 0.2762742 -0.8402812
mobil 0.23916902 -0.080129646 -0.0132449195 -0.45675543 0.040451694 0.21200232 0.7914481 0.7005976 0.40858427 -0.24511795 -2.1591408 0.68974185 -0.27041343 -0.34945574 0.4063308 -0.21488178 0.18178575 -0.8190665 -0.34103116 0.19385883 0.6623901 0.060669284 0.09290983 -0.19702448 1.3464792 0.3795244 -0.35767338 0.39348295 0.6325452 0.16891994 0.07312193 -0.20431049 0.5836637 0.062847905 0.6053346 0.70058244 0.10174788 0.17571242 0.34428018 0.72385097 -1.2723157 -0.74461913 -0.6124323 -0.6420904 -0.5100256 -1.1326853 0.32105872 0.13454577 0.48436394 0.22789535
specif -0.34156236 0.76888466 -0.35618472 0.0027115934 -0.026574716 -0.28148744 -0.17511284 0.4235487 0.16505402 -0.24793974 0.003090126 0.076367795 -0.4046129 -0.3374703 0.040847395 0.3033985 0.27352086 0.0050822264 -0.23553033 -0.006290553 0.6316182 0.47850698 0.024113093 -0.14157242 0.82131195 0.0662598 -0.31454664 -0.29511812 0.28044614 -0.1420924 0.33472165 0.09934389 0.06311287 0.45461026 0.21244681 0.4765491 0.12983078 -0.09237119 -0.3755285 0.2809712 -0.13189134 -0.09767756 -0.19595931 0.024376933 -0.36654672 -0.4566716 0.13268173 0.24659714 0.6258657 0.05707502
link -1.094537 0.49557695 -0.07171277 -1.3868355 -0.39219075 1.7565179 -0.58241427 1.6431155 0.3919573 -1.1329597 0.98127764 -0.21442805 -0.25037 2.2012403 1.1948894 -0.067679554 -1.2584794 0.95961946 1.1706401 0.7478245 -0.78119034 0.7290791 0.1205442 -1.085851 0.8545699 -0.86959875 0.4261839 0.17256978 -0.17673844 -0.20666817 1.190108 0.23363344 -0.8490203 1.0680891 -0.042843338 -0.6761305 0.13884369 0.12953843 -1.3298901 -0.23517029 0.9370494 -1.9189208 0.8089663 0.3716705 -0.08440519 0.053659145 -0.30324858 -0.71861356 0.89363855 -0.98042285
school 0.2779036 -1.3200932 -0.60291857 -0.62604207 1.4848509 0.013975406 1.2511683 2.140818 -1.2935721 -1.4735681 -2.6439636 -0.72024566 -1.4555495 1.7552185 0.98811996 -1.3184144 0.7074938 -1.7129437 0.95687467 0.75138646 0.109919116 -0.9483119 1.4310315 -1.7724371 1.4982204 -0.5345444 0.035764005 1.6713318 0.64834636 -0.50323606 1.2183657 -0.416497 -0.6421513 -1.4019622 1.5480248 2.16768 -0.9367758 -1.1724603 1.3156097 -0.80093306 -2.401155 -1.524207 -1.4185811 0.74754494 0.09401942 0.4317201 0.038111378 0.967433 -1.150556 0.910002
civil -0.21932243 -2.1277015 1.1787145 -0.6908473 -0.29066712 0.064497806 -0.45348164 1.6590545 0.27324015 -0.49646273 -2.7124076 1.9792811 -0.6052013 0.56163156 -0.37048617 -2.4150395 -0.49304146 -0.6275586 1.139983 0.5170452 1.2196959 0.06765944 -0.7206093 0.074779354 1.7463158 0.3471231 0.1604869 1.8739455 1.0251933 -0.20253745 0.82722175 -0.64738697 -1.113595 1.1515652 1.2639513 0.8415451 1.0518774 1.1739624 2.3568196 -0.34949 -1.864403 -0.42748106 -0.6336468 0.24443617 -3.3514915 -1.6526016 -1.5381598 -1.2350706 0.26831794 -1.0161319
chang 0.10707288 -0.18910505 -0.28215292 0.32684734 -0.59152305 0.2273838 2.2401087 1.4798886 0.2594016 0.62995946 0.7249476 0.9599899 0.86402816 -1.0655401 -0.3324316 1.198257 -1.4866426 0.17273812 0.9906468 0.17461625 1.207859 1.8172256 -1.4510347 0.3641342 1.3568457 -0.5521777 -1.5310693 0.79204315 0.732812 1.2899582 0.18579924 1.0351747 0.7231104 -0.6315465 -0.73987794 0.7135742 1.7845999 -0.16066098 -0.0042502307 0.26630923 1.0759339 -1.6933241 0.17337035 1.6667106 -0.5632109 -0.08084638 0.48324978 1.0317127 1.521063 -0.8761242
climat 0.051259693 0.29378843 -0.6820178 0.60821736 -0.5244063 0.3597444 2.0532632 1.5735185 -0.15003152 0.685496 1.9700998 0.59060115 0.52404934 -0.9505666 -0.4708336 1.1875762 -1.5700284 -0.05488771 1.5053627 0.69380754 1.2263032 2.3560817 -1.3707964 0.03027474 1.2730887 -0.76027596 -1.4358603 0.3766751 0.62731075 1.1969663 0.51714015 1.13315 0.9760621 -0.28573945 -1.0188413 0.9856521 2.5434828 -0.23692407 -1.0412023 0.45220757 1.8325717 -2.489612 0.34364718 2.0291865 -0.6689721 0.028957484 0.76450604 1.5210459 1.9238805 -0.67343
consist -1.7465143 -1.4755954 -1.2883353 0.48681554 -0.5077429 -2.151023 -2.1235566 0.094568044 -1.3956717 -0.3492128 1.1955502 -0.03514298 -1.7630575 -1.0589409 -1.4209052 -0.18246813 0.77785295 -0.072586596 0.9124561 -1.1267357 1.7517501 -0.2688585 0.27079245 -0.6065618 0.5082255 -0.23180895 1.0353409 0.4417389 1.5717223 -0.9441426 0.9781619 0.30105707 -1.4686657 0.29553968 0.32019937 1.3656788 0.51381063 0.050478127 0.10701834 -1.1323992 -0.9819862 1.313259 -0.56045014 1.5869551 -2.3812983 -0.22513016 0.62843317 0.182229 -0.59610754 -0.5679309
contribut -0.08210701 0.72851 0.020688016 0.07552654 -0.41752777 0.43641526 0.2837872 0.380391 0.5879782 -0.24184796 -0.25010774 0.42696622 -0.026272073 -0.24180007 0.33219352 0.818992 0.1803349 -0.054474622 0.3064311 0.51599157 0.22850764 0.46423724 -0.07324884 0.1676752 0.8374236 -0.07043194 -0.56088024 0.054016225 0.019356167 -0.06394679 0.6943434 -0.39182392 0.82061046 0.49147063 0.014471458 -0.030386351 1.0147579 0.0020987112 -0.4015393 0.6284354 0.21244594 -0.24136776 0.28681484 -0.044646773 -0.28117847 -0.24281672 0.5969333 0.2589119 0.69076806 0.35807014
plan -1.2803899 1.0438215 -0.65758044 -1.1547157 0.44744483 0.815648 0.45764554 -0.8177825 0.11879331 -1.2348197 -0.43232894 0.0030876233 0.5108172 0.6860575 0.2555702 0.19455092 -0.15896757 0.31128395 -0.19757271 -0.10337208 0.7382607 0.21515213 0.389039 -0.9305426 1.0416778 -0.22766675 -0.41420192 -0.56284964 -0.19973965 0.21318378 0.6329387 -0.44965655 1.3783655 0.53833157 0.13360488 -0.43690032 -0.5153909 0.33315322 -0.60889953 0.06534141 0.14317429 -1.8188591 0.31057733 -0.24836947 0.43436515 -0.629858 0.5458691 0.66253495 -0.39650005 0.36719275
formul -0.99905807 1.4205096 -1.6009755 -0.82341254 0.035811026 1.1477838 -0.9449935 0.053346597 -0.37962773 -1.594745 1.3116173 -0.4897555 -0.0018694177 0.9156798 -0.06332341 -1.1572889 -0.38691694 0.32798904 0.23776971 -0.5189641 0.32092497 1.7734618 0.66576076 -2.3885372 0.79644763 -0.32313985 0.34569755 -0.2706095 0.39890325 -0.19964793 0.24820383 0.6155745 -0.76457983 0.1337046 0.346843 1.3954265 -1.2440685 0.54727817 -1.5221275 -0.97733784 0.3196241 -1.9453889 0.57388204 1.1037959 -0.5117456 -1.4261006 -1.0179316 -0.08022176 0.41986388 -0.96205443
infrastructur 0.4583621 0.3852787 0.41976458 1.3258924 0.43681523 -1.0719607 0.8413665 0.39918116 -0.14290279 -0.3481201 -1.4710093 0.01098126 -0.83426523 -0.91836905 0.5785396 0.44434234 1.4327095 -0.9380548 -0.3185547 1.0480264 0.5647155 0.15814573 0.36466175 -0.25360143 0.19167168 -0.4526906 -0.78970826 0.9478702 -0.67521423 -0.47506204 -0.059959132 -0.20868546 0.58353287 -0.86501426 0.36277485 0.9786858 0.4678868 -0.45850337 -0.14818285 0.43981972 -1.0217521 -0.32898277 -0.7541745 -0.060179207 -0.07973112 -0.26083168 0.15010272 1.8471234 -0.3730017 1.0565035
agenda -1.4649222 1.3122822 -1.0402309 -1.4952164 -0.39549655 1.607119 0.09133973 -0.09506224 0.7460923 -0.91677177 0.58091515 0.44000524 0.8856911 0.23260096 0.21669787 0.49962997 -0.58837837 1.1892827 0.24968632 -0.109339185 0.35330638 1.8096029 -0.108940914 -0.58341366 1.3862004 -0.12878811 -0.8798617 -0.24395756 0.026349535 0.20829724 0.59589833 -0.15506981 1.0550786 0.7509888 -0.1909803 -0.4265025 -0.10998833 0.7347063 -1.3396202 0.16397107 0.6389839 -1.4193146 0.93778765 0.4141974 0.5334931 -0.9443703 -0.101721965 0.45960522 0.5149834 -0.64562845
financi -0.5433499 -1.0221918 0.21318391 0.6723016 -0.42357096 -0.060230665 0.96949345 0.13268748 -0.021858616 -0.48611885 0.22055784 0.60912615 -1.2397164 1.2424835 0.92297184 -0.24445714 -0.9912844 -0.5390811 0.8938758 0.71689034 0.182649 0.68205667 0.08470263 -0.6588296 -0.7246016 -0.98297375 0.3875067 1.1904197 -0.15060022 0.7881183 0.03246535 -0.06781716 -0.19548663 -0.3799782 -0.7783391 0.38123888 1.0246936 -0.20736718 -1.1398407 0.20775351 0.71561307 -1.3096644 0.30091995 1.3935874 -0.047418643 -0.024458764 0.21720366 0.27792937 -0.41365188 1.222719
phase -1.1872313 0.8550251 -0.8518472 -0.7067285 -0.72492146 0.2294243 -0.39020187 -0.44699243 0.15338404 -0.5614351 1.0005581 0.1641581 -0.2591068 -0.25176674 -0.4369515 0.14934528 -0.6900436 0.7677877 0.10500713 -0.5017745 0.7479839 1.3548045 0.45533842 -0.8358855 0.2359882 0.19669878 -0.11923668 -0.048244055 0.36492476 0.017994665 0.44101444 0.60973155 -0.29762733 0.033115692 0.16928522 0.27385738 -0.28892985 0.5797978 -0.8915164 -0.5719304 -0.18655206 -0.25346586 0.20468293 0.8862343 -0.3624036 -0.55957997 -0.42287683 0.080535285 0.5104513 -0.7265849
establish -0.9351753 0.355611 -0.4699029 -0.36286855 -0.20445023 0.01476678 -0.249911 -0.3855616 0.11553316 -0.6152607 0.1978912 0.35532695 -0.28130564 -0.25183654 -0.40842754 -0.15157741 -0.027357826 0.41258195 -0.13092151 -0.4148113 0.716686 0.460446 0.3765324 -0.4529721 0.38044518 0.19993727 -0.067153245 -0.009182851 0.27860478 -0.091241695 0.085285984 0.10238078 -0.106911905 0.24091601 0.17331563 0.37723565 -0.10212809 0.40377924 -0.4966049 -0.23346259 -0.33932042 -0.12490679 -0.022459991 0.4304226 -0.34853116 -0.5080966 -0.15393502 0.2602991 -0.054979216 0.002161283
strateg -1.3649161 1.0303597 -0.5371936 -0.99375635 -0.3048721 0.9419339 0.13981263 -0.21731976 0.4748047 -1.0626614 0.10915791 0.40275088 -0.13102332 0.25933343 -0.26697043 0.044398393 -0.35591152 0.3719387 0.08520078 -0.28803673 0.72920364 0.46103436 0.38418627 -0.5518255 1.056686 0.123460226 -0.24511601 -0.32472736 0.48359555 0.059139464 0.60531545 -0.062019408 0.3823577 0.7641875 0.38207427 -0.2360877 -0.055005528 0.49469176 -0.5928453 -0.017745223 0.17487985 -0.92564726 0.33243868 0.061835114 -0.24594824 -0.84956074 0.1930491 0.08514462 0.42065614 -0.019411912
secur -0.32537287 -0.8616478 0.35683107 0.36767617 0.065224215 -0.79198766 0.33012247 0.73303586 0.64114976 0.14163654 -0.81605625 0.7481385 -0.5126217 -0.39115122 0.13399978 0.30154246 0.15111473 0.6164246 1.127974 0.52694786 0.38636038 0.61273944 -0.6327941 0.97020197 0.4608979 -0.17581794 -0.9385954 1.3298893 -0.06273168 -0.26492044 0.72711813 -0.47855064 0.4898427 -0.2388022 0.30392534 -0.33979663 0.7649353 0.22967808 0.88885194 0.03150012 -0.62558985 0.6708595 -0.43713236 0.72610515 -0.8780436 0.35128608 -0.050703418 0.46268713 -0.47908947 -0.40139747
achiev -1.2050146 0.67433506 0.71856856 -0.41078776 0.014225989 -0.12935522 0.09584937 0.243036 0.666468 -0.6085408 -0.4870873 0.7614945 0.1943845 0.29484245 0.63801485 0.76307255 -0.1381835 0.61959374 0.15518168 0.63078386 1.0700088 0.94951653 -0.68822753 0.4546414 1.6782656 -0.5393028 -1.0314271 0.081672795 -0.9999808 0.38253078 1.5246347 -0.6572069 1.5002884 1.2969908 -0.5240787 -1.4931109 0.62685823 0.6262524 -0.11291514 0.7631029 0.4034087 -1.25968 0.38529995 0.15764785 -0.8008341 -0.5541075 0.20649286 0.5744835 0.20704664 0.2915953
prosper -2.6850114 1.2043463 -1.1037315 -1.3942751 0.3402816 0.78351724 0.42951712 -1.3838325 -0.18279456 -1.8845736 0.30747604 0.20514636 0.5157249 1.6456921 1.0892618 -0.37082428 -1.235901 0.7463448 -1.0149915 -0.69217604 0.88027614 1.3582611 0.98540413 -1.2286843 1.9914657 -0.45269608 -0.3669757 -0.83364713 -0.6729826 0.78506297 0.55241007 -0.39557847 1.7130618 0.915744 -0.86967766 -0.3307279 -1.0291444 0.55991286 -2.0319328 0.6319259 0.08511737 -2.5829208 0.7291826 0.49757528 0.8081666 -1.2366786 0.32160655 0.7521181 -0.7213728 1.7968445
institut -1.1131283 -0.13712795 -0.6806333 -0.053313572 -0.17828992 0.065819144 0.39578477 -0.7027536 0.001707709 -0.76247907 0.52739763 0.4797509 -0.6735201 -0.012601325 -0.568898 -0.50597733 -0.32220453 0.055016037 0.16819751 -0.6842335 0.8011983 0.4622472 0.4390883 -0.52098083 -0.022817653 -0.0038856217 0.18445635 0.4527568 0.4539414 0.27301967 -0.008704935 0.07960541 -0.18091063 -0.275505 0.012615513 0.5368748 -0.0032240173 0.2525902 -0.5285964 -0.5684351 0.08831939 -0.35053095 0.044848353 1.0377218 -0.243147 -0.41632375 -0.12477076 0.45952523 -0.6326357 0.5065522
basic -0.02633863 0.33577344 0.8105405 1.4956669 -0.04635695 -1.3257143 0.68304586 1.0962657 0.404252 -0.089763716 -0.8829705 0.5652851 -1.4765309 -0.70180947 0.83050174 0.7837372 0.9974827 -0.35818443 0.1109482 1.3554236 0.7003567 0.64422715 -0.28994787 0.73027045 0.4568616 -0.4730905 -1.0539557 1.055349 -0.7970208 -0.25265718 0.61568564 -0.41562864 0.3785179 -0.2474221 -0.06622792 0.5111337 1.3647221 -0.42777264 -0.20598423 0.8381397 -0.4784627 0.29072466 -0.7072475 0.37096107 -0.54860663 -0.029270854 0.09880045 1.3461672 0.15846115 1.1178991
make -0.22702175 -0.16976647 -0.4401301 -0.35018495 -0.730249 0.8524325 -0.5418793 1.3010811 0.26304993 -0.19039449 0.13691975 -0.043465853 -0.39757246 0.9542559 1.0459052 0.28416672 -0.5970075 -0.27710587 1.1566942 0.42442682 -0.8048798 0.6678728 0.36627236 -0.1961029 1.245746 -0.051530637 0.5425402 -0.04359592 0.6549296 -0.19090721 0.7757585 -0.7693206 0.26541388 0.69395596 -0.13620095 0.28024796 0.54925936 -0.1508911 -0.5380096 0.8171778 -0.24627118 0.08123504 0.3315991 0.3197326 -0.10504909 -0.21112797 0.73412687 -0.9293411 0.66939133 0.73666054
environ -0.1178442 -0.30035633 0.06458634 0.58239347 0.43756938 -0.64947647 0.6553963 0.21503223 0.07855829 0.10999475 -0.11623111 0.537675 -0.09427238 -0.056854848 0.07670909 -0.20185484 0.06160383 -0.046832338 0.40439796 0.11241169 0.59580046 0.46943614 -0.4981573 0.12068498 0.36652833 -0.28204095 -0.54720294 0.7910805 0.10634178 0.4138995 0.03840013 -0.1973902 0.6399477 -0.30848998 -0.2850682 0.661397 0.5616251 -0.26445764 0.08317843 0.15719205 0.21379812 -0.18555292 -0.1560613 0.7034571 -0.56983227 0.056045625 0.24193053 0.6345478 -0.46742085 0.46506256
young 0.08093715 -0.38465455 -1.0277588 0.13484986 -0.40689313 -0.019843275 -0.9355413 1.9227041 0.46685538 0.41656083 -0.43805707 0.23491624 -0.28633887 0.42367265 1.0518336 0.9649695 0.5067548 -0.22919592 1.6120107 0.20523559 -0.31375676 0.6100884 -0.37751195 0.7123367 2.794584 0.32169798 -0.34232798 -0.1318871 1.4528847 -0.5776846 1.8394563 -1.6224762 1.2619443 1.2309934 0.18681116 0.84754115 1.4752872 -0.6553931 0.34302992 1.1160866 -0.70935774 1.3937106 -0.2533738 0.51469564 -0.9668225 -0.054177623 1.5980605 -1.236106 0.69018495 0.49331665
unifi -2.6495671 -1.7187197 -1.4783386 0.28735527 -0.61405486 -2.4254525 -2.2779992 -0.087889224 -1.3817848 -0.8032089 1.0208771 0.21483809 -1.9096802 -0.8597414 -1.2453165 -0.075958125 0.5093342 0.19287957 1.1880249 -1.3143644 2.344311 -0.019410932 0.34272522 -0.7698952 0.8571013 -0.39494595 0.8925297 0.73398155 1.6389105 -0.9220485 1.243924 0.21600169 -1.0669639 0.55692494 0.29927057 1.4263154 0.71864545 0.1186107 -0.1150832 -0.827936 -1.2451684 1.150031 -0.29956502 2.1326692 -2.910116 -0.54844123 1.0666721 0.29632077 -0.81605256 -0.38503295
municip -1.0690342 0.36472398 -0.36874267 0.02930456 -0.43165812 0.41113755 0.08072608 -1.26976 0.27942717 -0.76116586 -0.23375578 0.5361541 -0.38964078 -0.16426453 -0.5686544 -0.27932936 0.36651668 -0.10433492 0.25968674 -0.1787413 0.62292624 0.24782056 0.6994764 -0.7013311 -0.15433228 0.07467705 0.0049917847 0.5484093 0.30437976 -0.22204313 -0.05864012 -0.39371976 0.68940264 0.004732625 0.3490562 0.42152566 0.1703842 0.5694831 -0.62222606 0.004412351 -0.17415066 -0.2919302 0.60743207 0.29469687 -0.6092076 -0.93684864 0.43721387 0.7565082 -0.74997574 0.61172694
particip -0.7902112 0.1398951 -0.55513006 -0.57978654 -0.0674528 0.7901045 0.2336308 0.48206937 0.86699086 -0.64992553 -0.61345077 0.846761 -0.21780106 0.82112557 0.028552309 -0.0069334717 0.09405062 0.34627995 0.9140755 -0.31116527 0.39440513 0.23861235 0.06025183 0.41711092 2.033454 0.45114243 -0.4381186 0.33214554 0.9220731 0.05070013 1.3868878 -1.26058 1.0729017 0.8396252 0.5268491 0.038850695 0.8486871 0.08433826 0.3324897 0.19769147 -0.3363345 0.2919431 -0.002192525 0.54757285 -0.80384576 -0.1786279 0.6187792 -0.5922502 -0.32496455 0.66257465
adolesc -0.08211397 -2.1067994 -1.5554304 -1.1932487 -0.32544264 0.75417286 -1.2579551 3.18077 -0.58529466 -0.06292813 -1.4553436 -0.6283595 -0.23906638 1.5058899 2.1566877 0.25584933 -0.29320064 -1.250605 2.2604706 0.6561954 -1.4947613 0.10730887 0.6953056 -1.2837334 2.7241354 -0.41042352 1.4358245 0.11897021 2.3528001 -0.9959068 1.7072606 -1.0788629 0.2838417 0.8750559 0.27221864 1.6762867 0.08104673 -0.6734755 0.030343436 0.90557665 -2.158073 -0.37780172 -0.112233825 0.4760076 0.002986085 -0.49636167 2.1436486 -1.4647094 0.9309884 0.23473509
stigma -1.6094624 -1.9640905 -1.6108615 0.74479616 -0.32105917 -2.4269674 -2.8598654 -0.023678612 -2.1324053 -0.6104931 1.4109163 -0.83172643 -1.733954 -1.0779779 -1.3147801 -0.1746406 1.259852 -0.46877804 1.25544 -0.92348033 1.4252357 -0.33647037 0.5386483 -1.5190234 -0.17249444 -1.0117991 1.4465693 0.6616862 1.3383561 -1.5690695 0.8860647 0.45769462 -2.075189 -0.28168672 0.48891693 1.7715759 0.077100694 -0.004849231 0.04614784 -1.6632495 -1.147573 0.9309345 -0.3975979 1.9820006 -2.5811427 -0.13837652 0.57977825 0.2735726 -0.96692425 -1.3560513
within -1.2083954 0.19385134 -0.72854125 -0.1114855 -0.48191965 -0.6035178 -0.6976488 -0.35270327 -0.2101473 -0.4866723 0.7551956 0.23313384 -0.6688263 -0.66696525 -0.6159172 0.22299443 0.12202145 0.37898704 -0.11270277 -0.7061782 1.0517877 0.39581424 0.33504787 -0.32166466 0.3687648 0.17766212 0.13027996 -0.063118786 0.51733804 -0.2699442 0.31199324 0.38246897 -0.49101546 0.28183007 0.13289028 0.6540446 0.22258288 0.15280579 -0.673466 -0.32809672 -0.3129017 0.44770125 -0.07353716 0.73379713 -0.577565 -0.32755208 0.12750624 0.41359618 0.14012372 -0.0048994967
ensur -0.62370247 0.12023964 -0.37204555 0.11989744 -0.32530996 -0.33494052 -0.0783962 0.22682896 0.079668954 -0.28630966 0.27905405 0.32568717 -0.5955934 -0.23930325 -0.08088175 0.12918328 0.0028439818 0.14984436 0.15440014 -0.1530572 0.57120776 0.4325189 0.12483569 0.052044638 0.51422834 0.15192696 -0.14508152 0.15076755 0.34578675 -0.07580145 0.39772713 -0.137326 -0.050964706 0.14686966 -0.013894924 0.58678955 0.48400915 -0.01695843 -0.3586567 0.06314757 -0.26971576 0.33286494 -0.21197383 0.64402866 -0.2670236 -0.16755727 0.12818654 0.23921727 0.15994014 0.41040012
overal -0.46880043 0.7636952 0.047745205 0.53664523 -0.488639 -0.3146372 -0.009761467 -0.119530685 0.39346287 -0.30040026 0.1275944 0.6675759 -0.3595914 -0.5264989 -0.20005468 0.490498 0.36366418 0.027204914 0.09462071 0.07570968 1.0722951 0.5579569 -0.061259404 -0.017936075 0.6300282 -0.017446827 -0.3845058 0.15715317 0.07945124 -0.01864218 0.5824602 -0.13535729 0.5293454 0.5459356 -0.049859505 0.41063157 1.0795615 0.07732078 -0.55422944 0.3976371 0.1576849 0.070707515 0.2732419 0.3279445 -1.0544977 -0.4008746 0.4166535 0.5565379 0.3837317 0.5501807
gener -0.5492107 0.37007245 -0.21169119 -0.45278066 0.043655414 0.16690277 0.23583545 0.10417671 -0.10643307 -0.6859331 -0.52781725 0.071949854 -0.038132094 0.36588317 0.38658106 0.018328285 -0.045946747 0.083912596 -0.32809967 0.3326684 0.35407642 0.49788055 0.33315456 -0.22802185 0.8079398 -0.106886365 -0.5382345 0.10553026 -0.4245112 0.01152637 0.2827286 -0.31191415 0.2610804 0.012971179 0.056216188 0.07953045 -0.03693504 0.08031769 -0.2591847 0.2148164 -0.51746744 -0.6280189 -0.19238915 0.122279644 0.30206797 -0.2970646 -0.44037193 0.5359274 -0.14605324 0.6469454
initi -1.4837081 0.8632599 -0.91411483 -0.7120393 0.110844344 0.2891094 -0.05962615 -0.5613034 -0.08188459 -0.99264556 0.53280056 0.1276642 -0.022921165 0.21356705 -0.1772298 -0.21315993 -0.31027192 0.48754847 -0.37668297 -0.6086696 0.9798649 0.75306946 0.4284266 -0.82996225 0.96921426 -0.034735087 -0.26344433 -0.45061868 0.1570652 0.24697347 0.27891448 0.18688644 0.265876 0.4548223 -0.06869865 0.1855996 -0.37261117 0.31175312 -0.96432596 -0.13809668 0.16452776 -1.0887214 0.17869729 0.5555494 -0.14822589 -0.6427163 0.050157726 0.44292596 -0.049740247 0.20359461
work -0.5219115 0.20636956 -0.35451803 -0.20162421 0.14797111 0.011389638 0.21912828 -0.117385745 0.16199735 -0.63805026 -0.62836826 0.33002865 -0.48230383 -0.28409132 -0.35909492 -0.3829698 0.4111268 -0.17035027 -0.098700106 -0.20662248 0.75173545 -0.013932034 0.515322 -0.5490006 0.44217512 0.22704102 -0.1746755 0.24853614 0.49793673 -0.12987283 0.018042611 -0.08105123 0.14905283 -0.1406301 0.52268285 0.6819201 -0.055332188 0.1803081 -0.048104946 -0.07471325 -0.6767546 -0.21422325 -0.28103074 0.18274409 -0.43763027 -0.5019697 0.23765773 0.45725644 -0.3076401 0.32109806
monitor -0.283313 -1.1682281 0.47674245 -0.95204335 -1.2532479 1.0763323 0.103035435 -0.3520259 0.051573325 -0.5064372 -1.1521221 0.2106094 0.44366285 2.760859 2.1177156 -0.38327137 -2.4481769 -0.2801266 0.14019151 0.72555643 -0.56779695 2.3562086 0.6366716 -1.7377834 -0.14514758 -1.13262 0.6817356 1.5962611 -1.3301651 0.9251131 0.25153658 0.22942726 0.16445176 -0.8054861 -0.9121949 -0.57367146 -0.8889613 0.8970677 -1.6890653 0.6538657 -1.145706 -2.2116313 1.1824803 0.97059244 0.8466193 -0.99689835 -1.086912 -0.18563467 -0.282957 0.8999374
servic -0.22313222 -0.04766534 0.38955677 1.4273515 -0.15181597 -0.08772789 0.62958455 -1.6228374 0.589229 -0.054170124 -0.5837335 0.9811956 -0.377942 -0.9960448 -0.7226739 0.01074581 1.1639144 -1.1900046 1.0268455 0.19638987 0.76571 -0.2982505 0.15532273 -0.5667996 -0.737058 -0.23166983 0.08839045 0.94027424 0.4427786 0.03305247 -0.15334722 -0.516788 1.7585428 -0.2242533 -0.088186674 0.66202533 1.0808853 0.5425606 -0.16850197 0.28848407 0.42941105 -0.3619772 0.8338936 0.3143686 -1.555703 -0.8481862 2.0430183 1.0304072 -1.0694567 0.68704396
innov -0.34144536 1.018197 -0.7275998 -0.8368183 -0.38155094 0.32345137 0.2979188 0.42618278 0.27741545 -0.6840928 -0.33802518 0.3362148 -0.2246274 -0.38342455 -0.1884764 0.29295036 -0.14111684 -0.018763196 -0.71435463 0.17588544 1.0719886 1.2742398 0.267162 -0.34035155 1.195312 0.33767498 -0.8667206 -0.040936448 0.07266219 0.35212153 0.021263048 0.4231801 -0.04922051 0.24545789 0.5367153 0.27274257 0.28582993 0.3494002 -0.93681276 0.37457258 -0.7060155 -1.0056348 -0.44987375 0.5246422 -0.32592228 -0.7411949 -0.79870534 0.4516698 0.65414166 0.18733035
purpos -0.6249314 0.3566656 0.14277928 0.14994144 -0.4416705 -0.12530798 -0.02943644 -0.058153115 0.4553086 -0.3007179 -0.15633684 0.6525522 -0.24389516 -0.15680222 0.080949016 0.52269024 0.080648996 0.13876967 0.22019409 0.206482 0.85903627 0.5623601 -0.2808764 0.058169074 0.6552793 -0.20795746 -0.3362052 0.20198426 -0.07438574 0.15444252 0.78590935 -0.23897734 0.6199872 0.70511985 -0.18044217 -0.14340289 0.92719436 0.3092674 -0.43824947 0.47655064 0.13773553 -0.28788888 0.38248506 0.34542444 -0.9028659 -0.41321716 0.44011924 0.29304063 0.28522104 0.35497522
environment -0.20651048 0.18528269 0.0028047117 0.4229839 0.24021648 -0.4345534 1.046224 0.39311337 0.056522913 -0.15786052 -0.45378563 0.51259726 0.30293006 -0.3084711 0.53359973 0.17411986 -0.30176735 0.016892606 -0.17151442 0.54744786 0.53594756 1.1981251 -0.31823498 0.11836411 0.8904245 -0.40501744 -1.1485572 0.6392677 -0.51023895 0.38778847 -0.16660644 -0.026882654 0.99054635 -0.4805936 -0.50967675 0.59960914 0.5129501 -0.060732976 -0.4132577 0.68176925 -0.15376484 -0.96896404 -0.15134747 0.41769502 0.09569967 -0.4422432 -0.18490991 1.2838765 -0.04452785 0.7616173
oper -0.3959901 0.5374144 -0.6403348 0.6120335 -0.0035992654 -0.6406607 -0.10073038 -0.6390222 -0.28525645 -0.3584454 0.15033412 -0.1110022 -0.46819097 -1.0364034 -0.3342387 0.24244064 0.85213643 -0.39834714 -0.23452298 -0.22978073 0.7926042 0.23875555 0.46189332 -0.838622 -0.20894045 -0.026763927 0.034643024 0.04176563 0.2152427 -0.34443793 -0.24274145 0.303147 0.15768467 -0.4108597 0.15799102 1.1338339 0.006092759 -0.07481421 -0.8601403 -0.0924676 -0.40733197 -0.05123664 -0.101107046 0.39354545 -0.12898585 -0.43574184 0.6606349 1.0707961 -0.23660801 0.27755648
addit -0.50232595 0.51914346 -0.28914845 -0.033746097 -0.15360971 -0.04907238 0.20768152 -0.005045287 0.11800521 -0.48801762 -0.038169835 0.17193851 -0.36534256 0.1700554 0.37025857 0.20878182 -0.10902529 0.021581514 -0.23049593 0.16962369 0.42481422 0.6067514 0.2836554 -0.38081092 0.47005433 -0.08897539 -0.272982 -0.00773205 -0.16347046 0.12811685 0.20721377 -0.0876961 0.24311206 0.07560165 -0.07906508 0.38540646 0.13151766 -0.053328868 -0.7713079 0.30623707 -0.21771164 -0.3944194 -0.068705045 0.32084948 0.19865878 -0.31327233 0.021928879 0.42746192 0.114310324 0.6854768
partnership -0.49891382 0.67859495 -1.0044127 -0.3814025 -0.25205368 0.037512194 -0.18296242 -0.08279145 0.025128659 -0.47802055 0.31980824 0.048922043 -0.4283238 -0.67072827 -0.79276454 0.13221037 0.28400022 0.025715932 -0.013159244 -0.22488418 1.1696233 0.89112073 0.17904885 -0.815865 0.3909214 0.2393471 -0.37130937 -0.15634127 0.7086589 0.026456991 0.12616995 0.5326165 -0.21427286 0.14788222 0.5882783 0.6560564 0.25546673 0.37219396 -0.74002683 -0.1128618 -0.20042191 -0.5825519 -0.07150606 0.8258498 -0.9859612 -0.4669287 -0.12938868 0.3579093 0.32551372 -0.35751468
inclus -0.40724674 -0.4106585 0.19182026 -0.10328352 -0.05352265 0.15911041 0.6856842 0.721645 0.6604003 -0.23333506 -0.8191829 0.7875247 -0.34238395 0.50900954 0.30792716 -0.019164726 -0.29911613 0.19237283 0.60545594 0.32368696 0.14814988 0.50020695 -0.113457054 0.74588555 1.1404891 0.016802412 -0.69293934 0.89283794 0.11113362 0.18082984 0.64779633 -0.76834714 0.69699925 0.078537054 0.13455051 -0.18165965 0.7567524 0.077929795 0.37637863 0.36963964 -0.46352312 0.114515446 -0.13944681 0.59487593 -0.26794547 -0.035520036 -0.043374684 0.17496295 -0.3188735 0.7509094
strategi -0.9325162 0.6901539 -0.63875675 -0.4329412 -0.22754414 0.09755847 -0.27822402 -0.1401523 -0.13858408 -0.703174 0.66164356 -0.023789506 -0.31281608 -0.16351375 -0.28292876 0.2164456 -0.057778135 0.35757864 -0.1129192 -0.32671216 0.6421717 0.45783916 0.3557931 -0.63713634 0.41015014 -0.023948262 -0.021310398 -0.30225036 0.23340732 -0.12995656 0.27254218 0.41157413 -0.35121194 0.261963 0.19182105 0.32528636 -0.10339464 0.1416708 -0.7458655 -0.29073128 0.043301262 -0.34244835 0.056113448 0.31395516 -0.18970591 -0.3595784 -0.08943651 0.30107763 0.31395704 -0.17857303
relev -0.34768882 -0.34211078 -0.6812896 -0.7794463 -0.5359747 0.66133106 -0.31348577 0.6428844 0.49621674 -0.17572321 -0.37807834 0.2890739 -0.05780447 0.3443744 0.27553475 0.08045305 -0.6860875 -0.009804037 0.4228216 -0.26903984 -0.13847129 0.6253865 0.3569292 -0.29340622 0.975636 0.23382078 0.33557582 0.00090673903 0.9465837 -0.06147576 0.38568428 -0.21740136 -0.034423195 0.45009696 0.23102435 0.44937888 0.018219685 0.20608136 -0.35716292 0.28919604 -0.78587514 0.13956565 0.11450083 0.28899732 0.08514285 -0.5504082 0.20366006 -0.7047494 0.55799824 0.11074766
assur -0.27024361 -0.29975417 0.37135753 0.96388364 -1.8309515 -1.0095445 0.19401324 -0.25134715 -0.24428044 -0.22832724 -0.551909 0.8631363 -0.8181697 0.15827513 1.2795761 0.85810566 -1.1394373 -0.95424104 -0.071543336 1.1765647 1.4213345 2.5461454 0.6077846 -1.6450433 -0.24811703 -0.8797271 -0.040271666 1.910473 -0.5994533 0.42297605 0.30987567 0.86234015 0.14962015 -0.95649785 -0.87255615 1.9082696 1.322686 0.09299879 -2.3575518 1.0830101 -1.4512527 -1.0877293 0.55832136 1.5392528 -0.54880184 -1.1672518 -0.055219326 1.4999136 0.59995127 1.551043
system -0.3731722 -0.00482881 -0.23995061 0.041583493 -0.116348565 -0.15197413 -0.16289777 0.0016148596 -0.080404244 -0.38168952 0.0966299 0.00791226 -0.33790627 -0.21789736 0.08221723 0.17389482 0.15964486 -0.054193754 0.105826095 0.16495363 0.21226239 0.34129375 0.22185375 -0.4677861 -0.0773361 -0.25223064 -0.0025281324 0.279588 -0.044448555 -0.14136975 0.057936065 0.12438164 -0.19611537 -0.2024233 0.0101847835 0.33932677 0.01618861 0.060170278 -0.41654772 -0.1541933 -0.17881936 -0.29534575 -0.10140798 0.35317552 -0.065222345 -0.18456344 -0.007371628 0.4757533 -0.006857906 -0.10829711
sanit 0.78644586 -0.1529111 0.33598232 1.5319747 0.39618343 -1.5697417 0.82491374 1.3583835 -0.3751797 0.30174255 -0.84457 0.0532995 -1.0399861 -0.94651836 0.59232605 0.6261338 1.2283239 -0.7605283 0.07021037 1.3324506 0.7854262 0.5203558 -0.25570107 0.14059329 0.08625311 -0.51225144 -1.167363 1.2408404 -0.60746205 -0.17645751 0.3035241 0.09126188 -0.14276057 -1.2533 -0.039141405 1.6552082 1.0781213 -0.9035713 0.07324755 0.3129935 -0.90413976 0.17223297 -1.2629168 0.8790144 -0.074017 0.55771655 -0.04275861 1.7997125 0.045382913 0.612517
area -0.28680378 0.18903829 -0.023023212 0.08310928 -0.27869028 -0.48826 -0.24209137 0.170149 0.14778747 -0.15574713 -0.41004255 0.32769135 -0.34446806 -0.5022301 -0.04219881 0.20444235 0.30310634 0.10404704 -0.1537666 0.09813132 0.68964535 0.47507566 -0.01214027 0.058319714 0.49723873 0.04961879 -0.36896425 0.2970826 0.057038736 -0.24697259 0.22584407 0.05018554 0.011180287 0.16691293 0.2379871 0.3428223 0.22498937 0.15045598 -0.107384495 0.13410036 -0.5891843 0.22980747 -0.23502825 0.14776751 -0.5784838 -0.4135244 -0.22649302 0.39179125 0.2605242 -0.049665056
better -0.04322328 -0.19728786 0.20986274 0.38896507 -0.29847106 -0.5444792 0.020998737 0.5579869 0.22185169 0.08544431 -0.56069833 0.48454022 -0.47304878 -0.08464633 0.3748715 0.12038554 0.012056087 -0.24500358 0.088073336 0.32396862 0.38572225 0.5026997 -0.15504794 0.34308136 0.6219444 -0.036797117 -0.26024032 0.52081615 0.07813165 0.073834725 0.2559573 -0.37131527 0.2232961 0.15133926 -0.06665537 0.40870258 0.64376193 -0.10009622 0.03591532 0.60915965 -0.47093824 0.35625193 -0.20029095 0.2474359 -0.5656836 -0.34936452 -0.021912985 0.09431493 0.18745 0.675193
adopt -1.5471238 -0.1674028 -0.45806432 -0.5962544 0.3740347 0.018518146 0.37497574 -0.6483563 -0.12239944 -0.52140176 0.7118494 0.15259883 0.28951564 0.14173879 -0.3516573 -0.14788365 -0.78470194 0.9713778 0.80268085 -0.32285258 0.78939223 0.6240149 -0.22882277 -0.55776215 0.016822498 -0.42570308 -0.48985052 0.30199084 -0.055342834 0.32550618 0.57276034 0.24190739 0.7205535 -0.15560463 -0.37026447 -0.5488679 -0.28248367 0.52559984 -0.07700456 -0.5281845 0.6107093 -1.1822413 0.36357173 1.0711519 -0.22879407 0.077320084 0.61119 0.628525 -0.6910832 -0.74896455
current -0.55777526 0.33049154 -0.32615656 0.09052128 -0.10519042 -0.48715195 -0.45932907 0.007289783 -0.20867205 -0.27228722 0.07846245 -0.06598802 -0.26214778 -0.42016637 -0.03653414 0.24541174 0.2513548 0.010768389 -0.17075881 -0.04054601 0.5288312 0.31307638 0.15979245 -0.33068642 0.37557286 -0.050278317 -0.10454553 -0.15061219 0.050353527 -0.31749275 0.1357377 0.13017435 -0.034728773 0.2110529 0.06849673 0.394854 -0.041734494 0.040482204 -0.36048448 0.08240138 -0.35559428 -0.061910987 -0.11306478 0.10241135 -0.29970378 -0.44561306 0.15973727 0.44788516 0.27253312 -0.058831442
construct 0.037175212 0.16408814 -0.054488167 0.5664514 0.27797607 -0.48818833 0.30327347 0.47446617 -0.44441128 -0.45554665 -0.48346233 -0.26526266 -0.74950904 -0.2434909 0.23182118 -0.036019485 0.65216124 -0.65162885 0.007500358 0.59477377 0.21630912 -0.16152868 0.56547153 -0.57576394 0.123893194 -0.22187164 -0.12394594 0.3001267 -0.05929513 -0.42869866 0.08318689 -0.06141932 -0.23786798 -0.4754824 0.3349473 1.0753759 0.14035414 -0.41458708 -0.03738801 0.0027441438 -0.68532515 -0.26973283 -0.639378 0.16155541 -0.03870767 -0.03820944 0.13854437 0.83076406 -0.061745986 0.58214086
nondiscrimin -1.4099532 -1.8635535 0.07083082 -0.46472982 1.3698546 -0.47274348 0.54821044 0.8384257 -0.5559266 0.054791436 -0.9370959 0.07417215 0.44739524 1.2448071 0.7852545 -0.50736827 -0.34954494 0.21262325 2.3986318 0.49379057 0.3894535 0.2042301 -1.3364562 -0.42225802 1.0338072 -1.3113325 -0.82857704 1.1038427 -0.15555193 0.3098278 1.3277137 -0.6929574 1.8869225 -0.25531617 -0.80039144 -0.6657926 -0.07478144 0.2546874 0.99778396 0.01932909 0.14474073 -1.7807401 0.23700714 1.4105424 -0.5657488 0.2647485 1.7212771 0.5747077 -1.6862835 -0.6211643
particular 0.040993776 -0.01362246 -0.5923254 -0.14294574 -0.51512134 0.15582833 -0.71885604 1.4858996 0.12403504 0.028380297 -0.33210632 0.01098769 -0.3915962 0.26181093 0.89761955 0.41600037 0.04684679 -0.47368777 0.72065294 0.35436168 -0.3219148 0.5037692 0.22643404 0.007758509 1.6850595 0.25900438 0.14685573 -0.25391266 0.9755882 -0.47026926 0.8728866 -0.6968789 0.28293929 0.75023884 0.1885183 0.9591721 0.57957673 -0.42070186 -0.14993326 0.927093 -0.7717555 0.49801195 -0.16238582 0.02288697 -0.37630194 -0.4684801 0.82531464 -0.8007323 1.0023395 0.5401262
among 0.35709283 -0.31299445 -0.11502692 0.18643346 -0.055329174 -0.3631665 -0.008886847 1.0385486 0.19936453 0.34098423 -0.69822073 0.1006753 -0.25332284 -0.23785129 0.4516103 0.4359371 0.24465226 -0.26321265 0.28581125 0.40294993 -0.024575597 0.37475324 -0.12688461 0.23410487 0.67661095 -0.014666541 -0.3704044 0.31944266 0.3248626 -0.25000256 0.24102053 -0.14258681 0.1520132 -0.101478375 0.13604991 0.61339235 0.3984158 -0.27939546 0.07792334 0.52605295 -0.76182884 0.45354116 -0.36714423 0.17588 0.01076528 -0.037209876 0.2562511 0.13830087 0.34487656 0.1996242
empower -0.2888049 -1.491158 1.2432305 0.15854359 -0.35060725 -1.1915039 -0.8664365 2.2797387 0.2582157 0.5029327 -1.3395733 1.0075454 -0.5400921 0.53058916 0.0053028665 -0.7228557 0.122387305 0.18216829 1.4359609 0.6094445 1.3641385 0.31046525 -1.5791755 0.9660852 2.029858 -0.34584656 -0.5372096 1.4108998 0.4843438 -0.30297926 1.5185128 -0.5519201 -0.1430019 1.1613777 0.35021365 -0.35195756 1.2961792 0.16745515 1.7659526 0.24282728 -1.0110606 0.7059912 -0.29906145 0.91346335 -2.8891995 -0.204501 -0.58208805 -0.67663103 0.2553254 -0.7439418
privat -0.06115193 -0.36577448 0.16618402 -0.016277645 -0.30181432 -0.26141146 -0.39836487 0.6533421 0.111885525 -0.3462706 -0.9759279 0.51074326 -0.7052735 -0.22588988 -0.0007647931 -0.28096145 0.33468232 -0.34445626 0.020190705 0.39116484 0.42326155 0.026557276 0.29065838 0.06670473 0.5222705 0.17045604 -0.07949279 0.42098594 0.37423417 -0.38578385 0.11629767 -0.2345202 -0.46018997 0.28866225 0.4404167 0.55657595 0.530567 0.20067264 0.30381724 0.33853716 -1.0162382 0.19426134 -0.4449409 -0.014348616 -0.9188441 -0.6026907 -0.34462512 -0.10294871 0.22098498 0.28256297
especi -0.08213051 -0.4113249 -0.04123874 -0.18137196 0.045929827 -0.030204343 -0.6899357 1.3049833 0.058813855 -0.032257047 -0.17815627 -0.16811563 -0.3165802 0.579652 0.8666552 0.43278933 0.010061662 0.18285759 0.9948797 0.81804323 -0.5697562 0.2769754 -0.2648916 0.04152116 0.70446384 -0.4997417 -0.11367399 0.23224677 0.08990929 -0.37498572 0.93080115 -0.44493112 -0.013213943 0.46353006 -0.09766646 -0.1015385 0.36254925 -0.1653458 0.13016374 0.3745095 -0.11517564 -0.2357724 -0.031667296 0.18848188 -0.32711166 0.12724121 0.1711118 -0.24282108 0.34554967 -0.316495
order -0.49562362 0.38984305 -0.13398743 0.21617529 -0.2580083 -0.46589556 -0.23261526 0.083891094 -0.07907605 -0.28235137 -0.03039417 0.20079657 -0.37268612 -0.31521899 -0.0004813219 0.2320333 0.26463974 -0.12665187 -0.110266395 0.09764858 0.7018865 0.27994615 0.16094853 -0.12517115 0.6253313 0.060957927 -0.18931636 -0.06598852 0.1364877 -0.10993271 0.40560505 -0.14726645 0.17364718 0.3803494 -0.009667483 0.5186316 0.42040086 -0.03483553 -0.23964752 0.3082408 -0.2957005 0.06334889 -0.10425488 0.20595248 -0.5531093 -0.38750148 0.2541519 0.31631875 0.30033785 0.45529103
lead -0.49345914 0.17206699 -0.2991823 0.07196582 -0.33372387 -0.30039513 -0.29753947 0.13454264 0.04038919 -0.27066863 0.3191911 0.36315408 -0.47034207 -0.51056993 -0.4967481 -0.06491496 0.102079585 0.19288026 0.1991077 -0.23472519 0.7970114 0.47781372 0.039328523 -0.17929116 0.32763118 0.13321422 -0.09933757 0.20722489 0.5217985 -0.22954476 0.26012754 0.251723 -0.3311181 0.17394222 0.26983464 0.71489394 0.47917154 0.14973117 -0.22597823 -0.17022596 -0.17347151 0.1670732 -0.095890224 0.5137424 -0.88830566 -0.39849418 -0.096418545 0.20519131 0.3225479 -0.2155947
two -0.46777293 0.7090219 -0.26748893 0.059420876 -0.052511632 -0.18958497 0.18638463 0.041963775 0.0012431033 -0.46503702 -0.03257384 0.14484248 -0.32703653 -0.35864002 -0.092271745 0.1269514 0.19508025 -0.078274116 -0.20764436 0.039006177 0.77327746 0.39007145 0.26824725 -0.40779805 0.59647787 0.0533544 -0.30819324 -0.007469831 0.06485981 -0.056127198 0.23559014 0.0638283 0.1742973 0.029050056 0.18321319 0.70586187 0.13234554 -0.031288274 -0.36488008 0.082538344 -0.33189967 -0.33940643 -0.28427267 0.19467537 -0.26900518 -0.41861445 0.041308273 0.6492641 0.22745721 0.32366553
follow -0.815072 0.51967263 -0.5472277 -0.15062933 -0.025761103 -0.18375851 -0.21544519 -0.35182133 -0.14996082 -0.51626605 0.2315469 0.047582533 -0.13351934 -0.15664493 -0.0613958 0.16763346 0.05163927 0.1109235 -0.1850552 -0.31300655 0.7524027 0.41599113 0.18516152 -0.58958626 0.5555539 -0.08443802 -0.054636784 -0.29565835 0.1556433 0.019739913 0.2694903 0.054562993 0.3011616 0.32113934 -0.06994756 0.3573823 -0.108236134 0.13373297 -0.5937228 0.010101601 -0.039971754 -0.4381161 0.078424044 0.24723175 -0.27238607 -0.49175197 0.30438074 0.34180275 0.074943006 0.1567535
help -0.26678333 -0.0510178 -0.14191806 0.2488272 -0.21468952 -0.27393132 0.292726 0.35486665 -0.08726199 0.08962465 0.2908574 0.3088081 0.09835992 -0.33580697 0.00856133 0.3527747 -0.28683564 0.034445938 0.35096478 0.20644711 0.5918901 0.80827874 -0.36954594 -0.020306174 0.5603863 -0.2250935 -0.5031395 0.3020669 0.028506145 0.284301 0.31851986 0.13656794 0.38449532 -0.025489718 -0.36734644 0.34800756 0.64319974 0.025502648 -0.16009612 0.18380184 0.13840266 -0.46772125 0.051874854 0.74233276 -0.37462157 -0.15628445 0.21775533 0.54444295 0.40184602 -0.010002898
world -0.92139184 0.03504842 -0.6715735 -0.37125763 -0.41510853 -0.5262397 -0.9781066 -0.1329299 -0.15410015 -0.23154235 0.6023805 0.1517529 -0.29595602 -0.4465881 -0.2914912 0.13598433 -0.114104904 0.50372446 -0.14239609 -0.53618056 0.6715408 0.5084239 0.12731716 -0.23300801 0.3517863 0.20373921 0.17490631 -0.2962066 0.42448804 -0.19085945 0.14742862 0.27553168 -0.42618093 0.46486878 -0.07728261 0.49608016 -0.00068859226 0.30916533 -0.56745726 0.024824852 -0.4793211 0.4041569 -0.011890562 0.42152807 -0.5306418 -0.4165122 -0.030114094 -0.101174265 0.24711882 -0.22311555
south 0.005876133 -0.5500594 -0.1732556 0.115439124 0.19097456 -0.31867832 -0.18913122 0.2519849 -0.34339836 -0.1133162 -0.4378857 -0.23562002 -0.10560646 0.20963839 0.32664946 -0.04470994 0.19684465 -0.23499937 0.3682894 0.18304153 -0.008586225 0.19777907 0.044360813 -0.52584743 0.060709506 -0.46978474 0.112907216 0.4572047 -0.040129643 -0.26029235 0.12749417 0.0017713797 -0.049268734 -0.36837602 0.07256266 0.34854606 -0.16754252 -0.08270573 -0.003810059 -0.16324373 -0.44920942 -0.24970587 -0.11287915 0.35195282 -0.10207254 0.025740951 0.09100103 0.263169 -0.3179121 -0.23223878
poor 0.18755497 -0.37221214 0.5585113 0.91192526 -0.31594098 -1.110302 0.15080142 1.5403357 0.101575404 0.51380646 -0.15362541 0.42409113 -0.6941707 -0.19054943 0.9404438 0.76771426 -0.10134658 -0.10413572 0.70759 1.1867875 0.25993901 0.92804366 -0.8108996 0.65257436 0.5838565 -0.5638769 -0.7777312 0.78218585 -0.2989337 0.05366327 0.7672216 -0.13410403 0.12338321 -0.0015213385 -0.5224299 0.47411993 1.3002797 -0.4241779 0.027836883 0.84326166 -0.102064416 0.1660884 -0.3919887 0.66056603 -0.63726115 0.1989839 0.10698394 0.42738423 0.7360146 0.23891112
continu -0.4079081 0.39587876 -0.388795 0.3875537 -0.29597855 -0.7113349 -0.5117072 0.20252395 -0.25402534 -0.07911643 0.76048446 0.012635 -0.37378246 -0.7268779 -0.25329792 0.14593825 0.17690603 0.27721903 0.12145121 -0.008225667 0.60365134 0.78101766 -0.016426543 -0.27172205 0.15606673 -0.020364316 -0.21687002 0.061513633 0.13218406 -0.31767642 0.17037898 0.3958399 -0.39226675 -0.02147217 -0.06544029 0.8491118 0.27493206 0.04295143 -0.3696597 -0.18435983 -0.1426898 0.29031026 -0.20973366 0.7041091 -0.5479683 -0.26588744 -0.18352513 0.39811438 0.43686685 -0.4325121
import -1.037448 0.33302358 -0.58852357 -0.47602436 -0.27592045 0.07496776 -0.46604434 0.1747744 0.00060297037 -0.53052324 0.48530918 0.03917672 -0.20306866 0.1002577 0.06987352 0.21521409 -0.19727239 0.66965085 0.2526029 -0.11055835 0.25224587 0.6736013 0.19022529 -0.1912678 0.7109621 -0.013441344 -0.23359233 -0.11458256 0.16334042 -0.28987184 0.4827608 -0.016703425 -0.13601615 0.38684583 0.034280468 0.04058495 -0.0018353336 0.19445866 -0.46403494 -0.11735407 -0.15412761 0.01779137 0.041067876 0.4764355 -0.098188326 -0.18162683 -0.09826415 0.06649153 0.19654825 -0.22850162
one -0.6512207 0.14240739 -0.4917065 -0.43564582 -0.33247626 -0.03144205 -0.71520835 0.73401177 -0.07683832 -0.43925783 0.23560837 -0.10793421 -0.42390323 0.10832374 0.17216396 0.41752738 -0.11497962 0.2784204 0.17031229 0.0037647944 0.07364542 0.41862202 0.25806063 -0.13137831 0.8606559 -0.05862029 -0.0050827083 -0.22562383 0.31993824 -0.42094913 0.6179701 0.00833095 -0.5115705 0.44551775 0.23342107 0.18116263 0.09954343 0.025423387 -0.32093284 0.015515702 -0.48382723 0.14683884 -0.19137703 0.3029384 -0.15607843 -0.19255923 -0.1667764 -0.17740378 0.60677344 -0.18274358
affect 0.4666317 -0.49345896 0.17527652 0.3233614 0.19025894 -0.57978624 0.24105504 1.2969218 0.076433666 0.30079338 -1.2072554 0.18245497 -0.35860324 0.07202245 0.74275464 0.2488665 0.25014594 -0.59080255 0.45838705 0.6594851 -0.03001684 0.061188415 -0.22120027 0.30693215 0.9351151 -0.095415436 -0.45449987 0.36826503 0.24992296 -0.186948 0.5649913 -0.46534157 0.49575925 -0.026876159 0.1431978 0.6434548 0.56784064 -0.33753186 0.514015 0.86934686 -0.8432233 0.07873031 -0.5130571 -0.02001381 -0.4083129 -0.116719246 0.53377134 0.06722991 0.3679614 0.3859462
shelter -0.35721305 0.58954495 0.20075789 0.9351949 -0.21278915 -1.1644487 -0.55750597 0.7028347 -0.09088432 -0.13337922 0.041468527 0.12560573 -1.1269915 -0.8026387 -0.04979141 0.43369973 0.9058821 -0.09466358 0.20821072 0.57586 0.76085 0.33988377 0.0038177094 0.06819179 0.36128372 -0.1807408 -0.4652317 0.21587393 -0.024010073 -0.6289477 0.5604073 -0.058335345 -0.27631474 0.27565026 0.24531041 0.83723813 0.8053496 -0.19322938 -0.13915955 0.37998673 -0.43617833 0.6377112 -0.38626614 0.36515012 -1.0541005 -0.23365696 0.09166142 0.69828206 0.49144265 0.29167616
ministri -0.1925291 0.04904272 -0.4370072 0.09703168 0.5149491 -0.23553005 0.067914665 0.092237525 -0.40308964 -0.69824916 -0.36534852 -0.3361149 -0.5460312 -0.10266791 0.22011842 -0.08006568 0.80074584 -0.29421315 0.09684663 0.47157562 0.055657167 -0.14730598 0.63366127 -0.94023436 -0.29007342 -0.32742268 -0.020250686 0.3717296 -0.008604404 -0.56109846 -0.1613386 0.061563816 -0.26143575 -0.6479469 0.36273828 0.89962727 -0.20551911 -0.31435 -0.32411382 -0.2828949 -0.5362981 -0.5515167 -0.4258325 0.018351004 0.18676199 -0.013273309 0.096344426 0.98278505 -0.49913692 0.09509996
three -0.8222122 0.59172887 -0.35680896 -0.13445841 -0.1575231 -0.24978334 -0.36230525 -0.20098327 0.063053295 -0.406943 0.21293242 0.21270543 -0.120759584 -0.29137734 -0.12952584 0.21812597 0.15432361 0.28743693 -0.12933536 -0.22959708 0.8989751 0.5628447 0.00180096 -0.32151592 0.72267234 -0.031215921 -0.22437963 -0.20768782 0.082338296 -0.056705527 0.40756023 0.031195804 0.34448287 0.52455306 -0.017592506 0.16114095 0.14898719 0.22891894 -0.4935359 0.08042656 -0.02538451 -0.26921195 0.09994878 0.3111013 -0.56689405 -0.52891016 0.16421491 0.35653746 0.23567079 -0.01739735
strengthen 0.1648364 -0.41883168 0.03341071 0.17229345 -0.16556785 -0.12108438 -0.10078331 0.30760983 0.25300232 -0.08431262 -0.5143074 0.46495846 -0.3098774 -0.22325054 -0.05357798 -0.06568474 0.2455463 -0.2624917 0.35485595 0.17413476 0.23941185 0.32254148 -0.14076914 0.04698025 0.20314893 -0.06122572 -0.07719262 0.60981876 0.2719987 -0.10621335 0.26922724 -0.17612372 -0.05165323 -0.051948424 0.2881808 0.2821547 0.4239473 0.17867163 0.263063 -0.04445004 -0.3030434 -0.05234894 -0.06666511 0.2816938 -0.7018122 -0.45821875 -0.19723485 0.055376418 0.0246507 -0.15584598
goal -0.1470911 0.5217662 0.22525541 0.3746249 -0.4183979 -0.015275624 0.22286877 0.46899053 0.46108764 -0.04264085 -0.0732522 0.52957225 -0.25387713 -0.32599187 0.2566343 0.6676135 0.21935318 -0.038583927 0.3690156 0.56220096 0.4216602 0.6559877 -0.24020651 0.23746094 0.6688542 -0.13280284 -0.572168 0.26239341 -0.12042932 0.048328232 0.751097 -0.31023064 0.5847999 0.32509673 -0.17873713 0.15933141 1.0384321 0.0221948 -0.2537206 0.54435104 0.109531164 -0.098781414 0.17965204 0.31266263 -0.4739743 -0.15699176 0.4502959 0.41649094 0.5963508 0.33063745
includ -0.47552708 0.33383572 -0.3441818 -0.11359644 -0.26007164 -0.14822544 -0.21021175 0.27486658 0.009653656 -0.3455952 0.25685415 0.08584415 -0.41476238 -0.09578939 0.023851406 0.07458478 -0.042676736 0.22915184 -0.057866227 -0.007037414 0.37220678 0.66366214 0.22421655 -0.3161079 0.3979766 -0.0022399225 -0.13191384 0.13457043 0.16448626 -0.14897278 0.18086451 0.222283 -0.3994477 0.0266137 0.16433573 0.56884116 0.012640436 0.049775716 -0.42168355 -0.06554757 -0.36982888 0.029896237 -0.1629843 0.38975284 -0.21288317 -0.31085905 -0.3787943 0.21775109 0.3006101 -0.0053316765
involv -0.8374784 -0.6988901 -0.32649937 -0.52062654 -0.54042125 0.077435866 -0.94578 0.61251515 0.1271963 -0.26285177 0.12253731 0.2616004 -0.632348 0.7604381 0.17787607 -0.1292842 -0.28358173 0.33372378 0.8342362 -0.33548063 0.08546463 0.14498717 0.12236382 -0.056649677 0.82478595 -0.05791867 0.6271254 0.29159254 0.78214765 -0.25221166 0.72822225 -0.26673776 -0.36891362 0.82245064 0.15203261 -0.13366468 0.3122067 0.061722588 -0.15694341 -0.022527143 -0.33814648 0.41315836 0.2026608 0.52411115 -0.87201196 -0.13576764 0.15523548 -0.79555005 0.094815694 -0.011938158
role -0.9652645 0.3850507 -0.30142128 -0.09523535 -0.5297365 -0.07856768 -0.18810947 -0.5023523 0.37726742 -0.40723744 0.20210566 0.69589645 -0.21274173 -0.4527128 -0.42919952 -0.06033778 0.014446339 0.54108334 0.0021755048 -0.32284138 0.8623354 0.8912572 0.13473278 -0.22348814 0.3680238 0.22164904 -0.35216144 0.2895312 0.2479829 -0.07595274 0.15556903 0.055389516 0.21939543 0.27211466 0.07743146 0.40137157 0.30468214 0.53926873 -0.5496053 -0.015624067 -0.2018747 0.12635572 0.27961928 0.6092376 -0.70053566 -0.6287572 -0.09203738 0.38943768 0.0060141976 -0.01267384
learn -0.6227126 0.49518093 -0.6228154 -0.49907887 -0.47379377 0.27863947 -0.085366495 -0.071315475 0.105121225 -0.6306831 -0.044005394 0.28764835 -0.2223988 0.1903217 0.10443465 -0.042158537 -0.35316318 0.036593415 -0.37128785 -0.26198158 0.5049327 0.8169094 0.52010596 -0.43290398 0.8720924 0.2881165 -0.057641495 -0.15856521 0.2980154 0.1344188 0.20380484 -0.0951934 0.03342873 0.27959645 0.10159095 0.4650091 -0.07146687 0.24461322 -0.71240634 0.21701081 -0.5609723 -0.23221461 -0.008153011 0.3931215 -0.005686643 -0.7349057 -0.30451047 -0.06496221 0.29043823 0.6428518
peac -0.9571559 0.6351104 -0.3251288 -0.46021596 -0.12736799 1.0094086 0.1897615 0.3501712 0.98420393 -0.6821711 -0.16826709 0.63637125 0.16285063 0.53259623 0.24528374 0.6864968 0.2098376 0.66280615 1.1081673 0.19364035 0.27695215 0.54748327 -0.16842438 0.18834944 1.7595035 -0.1270905 -0.7210366 0.2605361 0.30409703 -0.19322021 1.5583396 -0.9763516 1.3806043 0.9182573 0.3244344 -0.5827704 1.1015534 0.2320398 -0.21102917 0.114115976 0.3348205 -0.34517622 0.42021078 0.46984816 -0.638454 -0.02640863 0.9255787 -0.040043365 -0.028586375 -0.09731551
toward -0.7682687 0.42695862 -0.21618837 -0.53636837 -0.20275904 0.54567176 0.44388387 0.07500239 0.40153795 -0.40694723 -0.037914347 0.43012747 0.18795188 0.30848187 0.35607266 0.19567968 -0.6327333 0.3059013 0.15931678 0.12648734 0.38018012 0.8180728 -0.019396698 -0.19699404 0.90879416 -0.005410599 -0.494389 -0.06455458 0.015565814 0.39033395 0.5415786 -0.18662122 0.7769635 0.39599162 -0.22922382 -0.16501984 0.21185626 0.3087696 -0.42310822 0.43829954 0.13154869 -0.8746899 0.27201545 0.27576113 -0.0006818513 -0.46219614 0.29480663 0.14500584 0.3606051 0.22784236
market -0.13924642 0.102609895 -0.08018578 0.5023135 0.21473086 -0.79974675 0.11915446 0.6937023 -0.38462743 -0.2495112 -0.04609734 -0.28716084 -0.5897163 -0.07595792 0.6045966 0.3667574 0.15909894 -0.02966128 -0.152803 0.6359193 0.18364781 0.48057696 0.10900023 -0.16306356 0.16132987 -0.4692292 -0.42167664 0.3431116 -0.546574 -0.25008482 0.025339056 0.18106994 -0.3598267 -0.43391877 -0.167381 0.6269697 0.18451497 -0.51160896 -0.4776746 0.20220119 -0.42227927 -0.20079544 -0.5827321 0.36844394 0.3709526 0.14731564 -0.36688125 0.9283923 0.076082535 0.39511266
habitat -1.0971581 0.6366602 -0.65948665 -1.0143977 -0.35316095 0.7419623 0.041801322 -0.34623733 0.67239803 -0.65803444 -0.029799534 0.65571046 0.45893374 -0.052793406 -0.09537665 0.12573889 -0.3985442 0.78706926 -0.1069811 -0.44485614 0.73406345 1.2531112 0.009218297 -0.32477435 1.0231602 0.13497475 -0.5421688 0.030717382 0.14950389 0.23546153 0.32714793 -0.08940326 0.68469495 0.48498532 0.023138594 -0.21119323 -0.071577266 0.71484655 -0.7890757 0.097605616 -0.08281614 -0.6159735 0.48920682 0.455833 0.07583383 -0.80857086 -0.18891127 0.27910653 0.123001374 -0.18043035
administr -0.8894737 -0.1603409 -0.7542089 0.22858907 -0.14232221 -0.3786952 -0.42726547 -0.66303104 -0.45374015 -0.63097405 0.7726826 -0.017852178 -0.7453119 -0.2689073 -0.556314 -0.38050354 0.15317832 0.00757504 0.33449662 -0.47956124 0.7178407 0.17928052 0.53624004 -1.1671757 -0.61934805 -0.232686 0.56582654 0.28272933 0.57785845 -0.32572922 -0.18527113 0.43258154 -0.53415793 -0.267449 0.046096306 1.1185821 -0.002924701 0.13090883 -0.8601216 -0.5856006 0.031919077 -0.24554366 0.17400013 0.88981104 -0.6251989 -0.35546 0.36224216 0.54427975 -0.50966984 -0.118363105
